W0,W1,W2,W3,W4,W5,W6,W7,W8,W9,MSE
0.355,0.612,0.482,-1.22,-0.412,-0.745,-1.172,-1.76,0.479,1.18,69.113
-0.571,0.767,0.537,-0.904,-0.114,0.042,0.739,0.11,-1.743,1.831,67.79
0.389,-0.994,-1.537,-0.871,-0.351,-0.679,-0.475,-1.019,0.555,-1.048,32.273
0.539,0.679,-1.504,-0.472,0.909,0.158,0.866,1.084,-1.127,-0.436,18.747
0.289,-0.284,0.33,1.462,-0.205,0.213,-0.133,-2.064,-0.846,-0.223,62.239
-0.47,0.784,1.069,-0.706,1.055,-0.537,0.29,-0.408,-1.361,-0.796,65.369
-1.665,0.797,1.348,0.898,-0.318,0.693,-1.96,1.023,1.85,0.664,44.75
-0.511,0.833,0.054,-1.043,-1.361,-0.234,0.021,-2.581,2.91,-0.445,56.223
1.296,0.025,1.267,2.216,-0.548,-0.345,0.593,0.978,0.216,-0.165,83.636
-1.401,0.087,-1.03,0.002,1.212,0.384,0.348,-1.552,0.479,-0.537,31.525
-1.946,1.323,-0.255,0.04,0.472,1.258,-0.755,1.458,-0.045,-0.805,21.982
0.109,-0.637,-0.103,1.505,-1.891,0.066,-0.017,-0.316,-0.466,0.68,49.518
-0.606,-2.895,-1.51,-0.31,0.905,0.554,-2.159,0.554,0.108,-0.528,18.737
-0.51,0.586,0.291,-1.011,-1.089,0.111,1.852,1.05,0.594,-1.067,42.303
-0.815,0.661,0.8,-0.809,-0.168,-0.838,-0.58,1.006,-0.283,-0.93,47.697
-1.485,-0.147,-0.31,1.445,-0.853,-0.958,0.627,0.218,-0.006,0.161,33.707
-0.462,0.076,0.763,-1.122,0.887,1.068,-0.52,2.897,1.887,-1.703,44.023
1.02,0.752,-1.082,0.515,-0.471,0.896,-0.971,-0.99,1.888,0.039,46.19
0.776,0.988,-0.132,-0.417,0.511,1.789,0.159,0.428,-0.182,0.348,36.425
-0.497,0.371,0.992,1.442,0.947,0.466,1.983,-0.054,-0.17,-1.821,51.011
0.332,0.682,1.127,-0.103,2.333,0.895,-1.056,0.403,-0.005,1.345,64.943
0.056,-0.825,0.326,-0.534,-1.743,-0.836,0.159,-0.538,1.311,-1.315,57.749
-0.768,-0.995,0.171,1.387,0.023,-0.192,1.257,2.319,0.4,-1.931,36.684
-1.254,0.55,0.38,-2.13,0.519,0.645,-1.342,1.639,0.178,0.564,44.96
-0.542,1.715,2.359,0.203,1.533,-1.095,0.077,-0.916,-0.148,-0.894,99.258
-0.271,0.683,-1.614,-1.231,-0.384,0.636,1.774,-0.36,-0.04,-0.447,25.505
-0.59,0.156,-0.459,0.803,-0.192,0.623,1.09,0.756,-0.732,0.458,21.947
0.718,-0.184,1.501,-0.137,-0.509,-0.608,0.296,0.739,-0.191,1.053,74.575
1.96,-0.801,0.702,1.432,-0.539,-1.224,0.609,0.426,-0.654,0.547,89.774
0.363,-0.149,0.605,-0.265,0.581,-2.495,-0.441,0.074,-1.135,-0.245,69.456
-0.603,0.05,-1.298,-1.311,-1.119,-1.006,-1.139,-0.083,1.871,0.857,29.36
-1.608,1.261,0.664,-0.115,-1.114,1.614,-0.97,-0.333,1.68,0.319,28.862
0.728,0.002,-0.153,0.129,1.341,0.042,0.666,-1.277,0.532,0.367,44.716
0.136,1.207,1.515,1.066,0.171,0.251,0.248,0.95,-0.987,-1.609,63.283
1.142,-1.497,-2.058,1.49,-0.602,-1.694,1.096,-0.059,-0.325,-0.197,56.92
-0.03,0.352,-0.562,0.21,-0.006,-2.407,-1.457,-1.025,-0.229,0.418,59.947
1.827,-1.234,0.266,0.519,1.006,-0.213,0.318,0.242,0.631,0.562,56.603
-2.961,-0.282,0.268,-1.644,1.45,-0.402,1.116,-1.094,-0.12,0.053,76.024
-0.526,-0.818,0.45,0.253,-0.331,1.045,0.465,-0.371,-1.48,0.99,46.252
0.069,-0.902,-1.707,1.605,0.18,-0.817,-0.263,-1.899,0.976,0.187,60.803
0.829,-1.743,0.329,-0.378,0.54,0.087,-0.332,-0.858,-0.507,-1.364,45.536
-0.167,1.953,0.869,0.958,0.334,0.648,-0.046,-1.02,-0.883,1.089,66.481
-0.607,-0.051,0.824,-0.41,0.459,-1.049,-0.343,-0.556,0.639,0.548,47.569
0.506,-0.056,0.494,-0.646,-0.424,0.693,-0.119,-0.847,-0.004,1.407,53.245
-0.255,0.016,0.76,1.132,0.39,-0.366,0.861,-0.644,2.093,-0.79,51.659
0.807,-0.876,1.308,-2.403,-0.739,-1.814,-1.132,0.478,1.769,-0.803,92.167
-0.268,1.123,-0.264,0.148,-2.022,0.55,-1.199,-0.185,-0.041,-1.21,40.049
0.975,0.384,0.19,0.357,-0.965,-1.751,1.416,0.658,2.049,-0.165,67.36
-0.831,-0.465,-0.569,-0.108,-1.323,-1.461,-0.163,0.399,-0.281,1.082,36.235
0.066,-0.459,0.212,0.276,1.646,-1.367,0.802,-1.648,-2.206,-1.619,88.168
0.465,0.582,1.071,-1.889,-0.92,-1.084,-1.003,-0.766,-0.858,0.665,92.053
-0.285,-0.333,-0.404,0.457,0.517,0.96,0.337,0.897,1.83,0.09,17.509
-1.008,-1.551,-1.022,0.053,1.784,-0.456,1.87,0.084,-1.096,-0.829,45.977
-0.363,0.029,-0.367,0.012,1.583,1.089,-0.149,-2.042,0.267,0.246,42.149
0.976,-0.001,-1.303,-0.079,0.273,-1.282,-0.576,-1.122,1.814,-1.044,47.186
-0.602,0.209,-0.477,0.087,-0.247,0.163,0.808,0.337,0.79,-0.037,15.759
0.019,-0.563,-0.546,-0.67,0.509,0.945,0.609,0.733,0.092,-0.514,16.858
1.248,0.184,-2.087,-0.186,-0.458,-0.129,-1.688,0.395,-0.478,1.224,37.332
-1.854,1.17,-0.374,0.461,-0.874,0.393,-1.328,0.488,-0.833,-1.568,36.562
0.315,0.557,-0.235,0.712,1.62,1.051,-1.086,-2.098,-0.635,-1.213,58.725
1.167,-0.472,-1.087,1.066,0.304,-0.454,1.998,0.424,-1.397,-1.501,37.837
-0.837,1.071,1.653,-0.056,-0.567,0.706,1.371,-1.681,-0.376,0.649,70.96
0.935,-0.422,0.369,1.438,-2.382,0.651,1.529,-0.654,-0.725,-1.1,70.491
-0.049,0.62,-0.919,0.632,1.429,1.246,2.06,0.46,0.187,1.121,33.955
-1.109,-1.074,-0.563,-1.176,0.774,0.173,-0.521,-1.996,-1.029,1.463,58.849
1.964,1.766,0.262,-1.198,-0.679,0.756,2.327,0.796,-0.002,0.143,79.459
-1.232,-1.42,-0.679,-0.132,-1.048,1.713,-0.829,-0.206,-0.865,-1.156,29.221
-0.791,1.642,0.579,-0.002,-0.239,1.223,0.276,-0.287,0.434,-0.965,31.27
-0.416,1.34,1.946,-1.048,-0.192,0.2,-0.145,1.02,-1.091,0.356,84.081
0.857,1.806,-1.291,-0.12,0.305,-0.203,-0.973,-1.4,0.928,0.578,45.39
1.234,-0.903,-0.547,1.739,0.913,0.787,0.627,-1.94,1.154,-1.711,66.141
-0.674,0.32,0.189,-0.439,-0.023,-0.104,0.547,0.479,0.167,0.464,25.339
0.273,0.304,0.454,-0.143,-0.122,1.023,-0.629,-1.124,0.565,0.495,40.657
1.1,0.082,0.224,-0.252,-1.463,-0.194,0.799,0.216,1.0,0.637,60.811
-0.146,2.345,1.628,-0.403,-0.071,1.517,1.979,1.801,-1.22,0.478,85.401
1.647,0.041,1.674,0.027,0.57,-0.409,-0.4,-0.642,0.053,-0.751,80.276
1.471,-0.276,0.347,-0.218,1.287,0.224,0.773,0.28,1.439,-0.061,42.565
-1.756,0.439,0.316,-0.21,-0.302,0.014,0.12,0.986,-0.212,0.837,26.496
-1.794,0.299,-1.472,0.781,2.523,-1.108,1.491,-0.727,-0.019,0.866,60.229
-0.808,0.105,-1.038,1.106,-0.307,-0.47,-0.387,-0.896,-0.186,-2.002,37.205
1.885,0.732,0.038,-1.594,0.559,0.33,-0.993,0.039,-0.255,-2.738,70.859
0.161,0.757,-1.185,-0.409,0.059,-0.805,0.19,0.821,-0.026,-0.182,15.844
-0.949,-0.308,-0.652,1.883,0.575,1.493,1.419,-1.253,1.797,-0.091,46.294
0.53,-0.618,-0.051,-1.221,0.926,-0.035,0.263,-0.692,-0.004,-0.12,35.487
-0.372,-1.32,0.085,1.161,-0.412,1.931,0.201,0.989,0.575,-0.64,24.141
0.426,-0.382,0.285,0.751,-0.733,1.185,-0.39,-0.969,0.069,-1.005,38.342
-1.118,-1.243,2.193,0.783,0.517,0.542,0.616,1.19,0.297,0.174,56.266
-1.205,-0.727,0.401,-1.337,0.833,-0.035,-0.345,1.634,-0.886,0.064,39.342
-0.383,1.694,-0.758,-0.023,-0.556,0.526,0.831,-1.441,-0.408,0.242,28.597
0.527,-0.346,0.021,0.824,0.958,-2.233,-0.12,-0.479,0.203,0.642,66.209
-0.774,-0.292,0.129,0.571,-0.731,-0.039,-1.178,-0.006,0.074,-1.216,33.352
1.029,0.613,-0.917,0.263,0.261,-1.813,-0.449,0.285,-1.513,-0.516,42.507
0.582,0.403,-1.313,1.101,0.539,0.602,2.296,-0.199,0.983,-1.512,34.256
0.609,2.366,0.766,-0.37,-1.577,-0.458,0.416,-1.965,0.221,-0.502,72.26
-0.835,0.326,-0.569,-0.594,-0.524,-1.068,0.318,-1.802,0.18,0.591,42.216
0.986,0.425,1.242,-1.249,-0.328,-0.798,-1.834,0.479,0.793,-0.054,78.238
1.163,-0.218,-0.421,0.542,0.351,0.946,-0.681,-1.463,-0.908,-1.027,42.488
0.361,0.751,1.001,-0.812,-0.385,-0.704,0.386,0.198,0.341,-0.808,51.648
-1.041,-0.253,-1.076,1.574,0.466,-1.229,1.12,-0.254,0.076,0.994,44.155
0.431,-0.499,0.431,-1.536,-1.343,0.576,-0.083,-0.963,0.1,0.438,56.107
-1.026,0.982,1.114,0.56,-1.172,0.199,1.008,-0.667,-0.786,-1.042,55.904
-0.877,-0.596,0.563,1.062,-1.336,0.54,0.696,0.677,1.058,-1.206,38.768
-1.051,0.993,1.02,-1.696,-0.863,0.857,-0.015,0.82,0.099,0.652,54.766
-1.111,-0.745,-0.657,0.368,0.657,0.25,-0.416,0.02,-0.21,0.046,16.804
0.367,0.225,-0.092,-1.307,-0.903,-0.315,-1.513,1.022,0.257,1.787,54.654
0.922,0.305,0.669,1.299,-0.429,0.295,-0.05,0.176,0.234,0.316,55.527
0.939,1.753,-0.289,-0.933,-0.429,0.909,-0.087,-1.357,0.466,-0.338,44.29
-0.433,-0.218,-0.819,-0.277,0.641,2.01,1.691,-1.59,-0.001,0.863,39.396
0.966,-0.366,-0.566,1.431,1.191,-0.662,0.492,0.275,-0.05,0.822,48.147
0.418,-1.11,-1.475,1.007,-0.552,0.648,0.284,2.329,-0.32,0.577,23.915
0.764,-0.093,0.228,-0.371,-0.293,-0.07,0.522,1.007,-1.229,0.918,49.942
0.499,0.934,-0.907,-1.057,-0.106,-0.778,-0.327,-0.127,1.624,0.889,34.379
0.367,-1.584,1.828,-1.994,-0.5,0.679,2.362,0.624,-0.402,-1.0,93.587
1.738,-0.461,1.891,0.75,0.232,0.651,1.176,0.676,-1.802,1.099,104.739
-2.328,0.17,-0.926,-0.645,-0.694,-0.479,0.164,-0.562,0.492,-0.488,26.446
-2.837,-1.523,-0.836,-0.721,-0.955,-0.597,0.399,-0.069,1.158,-0.324,41.322
-1.15,0.04,-0.02,0.909,-0.453,1.118,-1.361,-0.384,0.113,2.43,38.234
0.81,-1.445,0.636,1.641,-0.518,0.36,2.278,1.878,-0.659,-0.603,61.596
1.535,1.215,-1.174,0.679,1.642,2.695,-0.895,-0.644,1.763,-1.021,61.91
-0.065,-0.112,-0.662,-0.736,-0.93,-0.261,-0.46,-0.705,-1.538,1.738,50.201
0.561,0.329,0.973,-0.947,0.05,1.54,1.473,-0.216,0.888,-0.037,47.403
0.572,0.183,-2.377,1.714,0.677,-0.697,-0.232,-0.06,0.929,1.216,50.012
1.149,0.851,-1.085,0.76,0.472,-0.101,-0.087,0.937,0.807,0.022,30.883
-1.906,-1.714,-1.473,-0.031,0.445,0.737,1.486,0.481,-1.563,1.449,45.393
2.187,1.123,0.704,1.684,-0.509,1.006,0.297,-0.133,-2.557,-1.195,88.179
0.509,0.939,-0.208,0.648,-0.289,-0.191,-0.68,-0.068,0.609,0.721,40.075
0.581,-0.475,-0.441,-0.038,-0.672,-0.549,0.262,-0.521,-0.156,-0.931,35.005
0.503,0.228,0.413,-0.554,1.173,0.321,0.316,0.785,2.14,-1.971,34.698
0.248,-0.37,-0.873,-1.623,2.148,0.057,1.431,0.841,-0.938,0.283,34.442
0.46,0.437,0.763,-1.4,1.084,0.662,-0.131,1.359,0.811,0.11,39.235
1.239,0.135,1.012,0.922,-1.753,1.855,0.965,0.799,-0.418,1.054,86.105
-2.198,-0.131,-0.163,0.838,-1.19,0.065,0.002,-0.341,-0.845,0.213,32.569
-1.081,-0.27,-1.904,-1.156,-0.697,0.745,-0.748,-0.981,-0.357,0.896,21.139
1.694,0.257,-1.328,-1.398,-0.263,-1.964,0.2,0.609,-1.918,-0.45,54.689
-0.051,0.874,0.561,-0.989,1.596,-1.004,0.349,0.056,0.575,0.311,40.722
1.429,-0.471,-1.072,1.788,0.674,-1.184,-1.99,0.829,-0.598,2.298,81.098
0.657,0.25,1.015,1.699,-1.233,-1.071,-0.539,0.667,-1.188,0.035,78.905
-1.946,0.215,0.396,-0.84,-0.027,0.716,-0.916,0.584,1.427,1.385,22.3
-1.098,0.058,-0.428,-0.085,0.928,-3.175,-0.777,-0.578,0.724,2.085,73.328
0.545,1.118,0.597,1.206,-0.058,0.287,1.606,1.382,1.746,-0.198,49.917
-0.598,0.305,-1.57,-2.181,0.522,0.778,-0.22,-1.745,1.793,-1.187,37.447
1.078,0.083,-0.102,1.331,0.286,1.944,-2.18,-0.08,0.301,-0.021,51.323
1.579,1.166,0.199,-1.08,0.643,-0.0,-1.259,-1.276,0.845,-0.85,63.502
1.147,0.31,-0.668,-0.371,1.486,-2.576,0.206,0.265,1.886,-0.978,47.889
0.502,0.623,-0.934,-1.058,-0.421,0.904,0.117,-0.207,0.368,0.724,28.97
1.2,-0.58,-0.133,0.615,1.48,1.451,2.746,-1.085,0.782,-1.765,51.658
-0.19,0.777,0.824,-0.795,-0.394,-0.178,0.449,-1.209,1.275,-1.497,48.417
-0.559,0.456,0.144,-1.321,0.872,1.977,3.099,-0.655,0.222,1.0,57.366
-1.372,-0.061,1.773,-0.822,-1.133,0.477,-0.104,-0.911,0.082,-0.377,65.648
-2.075,-1.337,-0.9,0.907,-0.408,0.967,-0.085,-0.658,0.012,0.86,23.338
-0.291,-0.051,-0.967,-0.654,-1.122,0.932,0.298,-0.054,-0.881,1.188,30.249
0.733,1.005,1.294,-0.942,0.022,-0.28,1.689,-0.451,0.246,0.156,64.345
-1.42,-1.21,-0.67,-0.863,0.957,-1.213,0.518,1.12,-0.627,-0.118,30.813
1.879,0.5,1.142,-0.61,0.377,0.098,-0.28,-1.119,-0.441,0.301,81.683
0.771,0.245,-0.643,0.769,-0.332,1.171,0.694,0.228,0.072,0.225,29.605
0.386,0.315,-0.812,0.869,0.396,0.013,-0.749,-0.909,0.29,-0.046,32.389
-0.894,0.385,0.214,1.049,-0.884,0.687,-0.708,1.548,0.925,-0.235,24.551
-0.288,-0.807,1.62,1.905,-2.464,1.137,-0.833,0.637,-0.008,-0.638,74.742
-0.064,0.581,0.496,0.542,-1.779,1.532,0.774,0.042,-0.164,1.91,60.775
-0.585,0.576,-1.096,0.662,-1.876,-0.815,0.749,0.505,0.717,0.891,30.889
-0.965,0.595,1.275,0.87,0.252,-0.934,0.397,-0.886,0.717,-1.184,60.884
-0.811,-0.443,1.176,-1.415,-1.152,-0.247,0.729,2.583,-0.564,0.615,73.549
-0.843,-2.237,-0.027,-1.642,0.805,0.749,-0.48,1.693,-1.116,-0.29,40.945
-1.488,-0.148,-0.325,0.053,-1.592,1.416,1.172,0.214,-0.767,0.492,31.815
-0.732,0.892,-1.969,0.055,-0.284,0.46,-0.461,-1.529,-1.611,0.248,28.182
-0.32,0.632,0.485,1.513,1.263,0.123,-1.649,-1.018,1.091,-0.425,60.744
-1.127,-0.646,-0.444,1.151,0.394,-1.311,1.329,-0.974,0.543,-0.072,52.047
0.498,-1.197,-0.133,-0.183,0.417,0.69,-1.821,-0.487,0.411,-1.395,35.385
-0.87,0.42,0.52,0.072,0.087,0.303,-0.086,0.055,0.351,-0.302,26.22
0.234,1.436,-2.094,0.783,-1.759,-1.142,1.644,-0.533,0.199,0.453,39.954
0.624,-1.477,-0.086,-0.661,0.446,0.144,1.284,-0.538,0.29,-0.726,36.134
0.498,1.027,-0.375,-1.916,0.243,-2.006,0.212,-0.414,0.298,0.99,53.86
-0.941,-1.747,0.108,1.888,-1.129,-1.366,-0.419,-0.878,0.184,0.07,68.675
-1.266,1.97,-1.076,-0.127,0.027,0.538,-0.603,-0.557,-0.126,1.422,21.477
-0.108,0.974,-0.959,0.37,0.219,0.301,2.201,0.686,-0.332,-1.406,21.888
0.856,0.973,-0.529,-1.98,1.059,-0.001,0.318,-1.238,0.143,0.021,44.404
0.513,-0.927,1.397,-0.875,0.284,-0.617,-0.522,-1.047,0.394,0.453,68.911
0.045,0.781,0.543,-0.151,1.135,-0.1,0.857,-0.26,-0.271,1.271,49.651
-0.964,-0.539,-1.947,-0.823,-0.999,-0.815,-0.175,-0.511,0.92,2.199,32.991
-0.71,0.967,0.187,-0.66,-0.229,-0.781,-0.593,2.001,0.603,-1.17,33.785
-0.567,0.31,-1.199,-0.416,-0.125,0.935,0.29,1.998,-2.489,-1.359,41.364
-0.22,0.037,-0.936,-1.019,0.663,0.329,0.822,1.309,-0.234,-0.849,17.147
0.225,0.971,0.4,-1.615,-0.324,-0.54,-0.635,-1.544,0.298,1.151,63.292
0.244,-0.911,1.11,-0.704,-0.119,0.754,0.053,-0.261,-0.01,-0.103,45.978
-0.429,1.002,-0.168,-0.555,-0.24,1.03,-0.602,0.257,0.643,-0.392,21.524
-0.595,-0.724,-0.234,0.049,1.186,-0.039,0.96,0.445,-0.455,0.82,28.186
-0.487,0.158,0.215,0.03,-0.354,1.358,0.693,0.938,-1.058,0.646,33.756
-0.227,0.727,2.439,0.113,0.079,-1.613,1.296,-1.312,-1.365,0.639,125.979
-1.226,0.817,-0.939,-0.233,1.357,0.149,-0.965,0.79,-0.998,1.115,24.332
1.303,0.032,-0.72,0.046,-1.163,0.969,-0.89,-0.323,0.766,-0.781,41.372
1.247,-0.554,-0.051,-1.005,1.005,0.714,-0.317,-0.143,1.218,0.42,37.947
0.326,0.773,0.441,0.165,0.195,-1.843,-0.691,-2.878,0.714,-0.574,89.75
1.106,-1.808,-0.706,-0.465,0.826,0.348,1.335,0.89,-1.394,2.026,58.637
1.585,0.75,-0.114,-0.994,-2.563,-1.423,-2.482,0.29,1.581,0.568,109.82
-0.014,-0.352,1.288,-0.245,0.942,-0.046,0.529,-1.302,0.635,0.713,60.384
0.004,0.777,-0.697,-0.078,0.358,1.504,-0.205,0.457,0.074,-1.901,24.303
0.301,-0.015,0.418,0.161,0.72,-1.383,-1.445,-1.053,-0.476,-0.038,64.603
1.96,0.152,-1.321,-0.405,0.518,0.148,-0.642,-0.129,0.386,-0.059,38.877
1.733,0.65,0.109,1.26,1.735,0.479,-0.02,-0.668,0.207,-0.174,63.321
0.611,-1.218,-0.63,-0.736,-0.101,-1.451,0.48,-0.436,0.413,-1.775,44.296
-0.959,1.269,-0.213,1.926,-1.212,0.031,-1.087,-0.073,-3.033,0.839,61.189
0.623,1.326,0.574,0.33,-0.68,-1.002,-2.426,1.595,-1.11,-0.365,77.378
-0.779,0.931,-0.085,-0.508,0.823,-0.183,0.889,0.588,-0.325,-0.434,23.475
0.047,-0.812,0.184,-0.856,0.292,-0.058,-0.634,-1.197,0.67,-0.472,37.86
-1.124,0.232,0.219,-0.551,1.382,0.191,0.507,-0.253,0.446,1.264,33.006
-2.382,1.857,-0.949,2.051,0.495,-1.027,-0.885,1.534,-1.41,-0.647,39.035
-0.767,0.449,-0.331,1.594,-0.036,0.681,0.765,-0.486,1.501,0.253,31.36
1.387,-0.217,1.028,-0.488,-0.167,-1.355,-0.597,-0.623,-0.352,0.042,77.934
0.773,0.085,0.285,0.208,0.024,0.499,-0.886,0.39,-1.259,0.557,46.115
-0.137,1.457,-1.271,-1.647,0.993,0.634,0.073,1.182,0.803,-0.925,21.503
-0.348,0.315,-0.174,-0.515,1.064,-0.312,0.63,-0.34,-0.528,0.802,34.689
0.275,-0.829,0.884,1.189,-1.082,-0.672,2.449,-0.921,0.01,-1.441,77.784
0.005,-0.436,-0.319,-0.196,0.697,-1.411,-1.472,-0.044,-1.854,-0.223,51.405
-1.4,0.73,-1.445,1.136,-0.17,0.966,1.766,1.917,0.381,2.011,28.104
0.225,-0.364,-0.048,0.937,-0.753,-1.024,-1.185,0.644,-0.167,0.603,43.217
-1.535,-0.337,0.099,-1.052,0.465,-0.846,0.795,0.937,0.465,0.417,27.908
-1.302,0.03,1.951,-2.574,0.759,-0.187,0.17,0.955,0.978,0.632,69.843
1.013,1.102,0.495,0.393,-0.846,1.044,0.387,0.977,-0.079,1.166,62.55
-1.522,0.093,1.681,-0.806,-1.413,1.434,-0.458,0.839,1.57,1.363,54.432
-0.284,1.639,-0.15,1.846,2.654,-1.642,1.335,-0.674,-1.223,1.296,99.011
1.013,-2.411,-0.985,-0.656,-0.701,-0.057,-0.522,1.019,0.47,0.331,35.269
1.296,1.495,-0.978,-1.356,-0.187,1.412,-1.517,-0.377,-0.032,0.537,54.246
0.674,1.387,-1.353,0.443,0.806,-0.189,0.244,0.459,-0.656,-1.045,21.177
0.45,-0.943,0.321,-0.243,0.772,-0.026,-0.889,1.612,-0.215,1.086,34.878
-0.094,0.755,-1.018,-0.139,-0.662,-1.537,-1.763,1.668,-1.16,-0.134,34.948
1.295,0.775,0.095,-0.008,1.469,-0.259,-0.309,0.424,-0.316,1.096,53.608
-1.375,-0.771,1.522,-0.378,0.659,0.245,0.333,-0.977,0.395,0.773,56.945
1.378,0.364,0.302,-0.667,0.456,-2.026,0.712,0.711,1.279,-1.107,51.533
-0.671,-1.215,1.868,-0.508,0.714,0.013,-0.497,1.916,0.916,0.501,47.738
0.284,0.692,0.31,0.655,-0.61,-0.897,-2.229,-1.325,-0.699,0.889,74.891
1.2,0.767,0.883,-0.479,-0.118,-0.987,1.077,-0.278,0.123,0.234,64.661
1.604,0.28,1.014,0.737,-1.018,-0.898,0.572,-0.931,-0.972,1.18,102.455
0.212,-0.601,-0.994,-0.792,-1.087,0.801,-0.761,-0.595,-1.606,-0.076,35.247
1.883,-0.347,-0.193,-1.622,0.708,1.767,2.273,0.242,0.823,2.219,91.214
0.555,3.028,-0.469,-0.334,1.287,-2.339,-0.636,1.258,0.076,2.13,72.294
-3.141,-2.179,-1.935,0.486,-0.252,0.157,0.109,0.648,-1.654,1.419,46.043
-0.69,0.929,-0.44,0.512,0.185,-0.581,-0.788,1.051,0.331,1.048,21.247
-0.144,-2.257,1.775,0.592,0.302,0.185,-0.741,-0.829,0.0,2.655,96.854
-1.551,0.405,0.311,0.276,-0.849,0.768,-2.532,-0.72,-1.0,-1.238,55.602
1.906,1.048,1.245,0.858,-1.344,0.584,-0.061,1.485,-0.204,-0.404,93.406
-0.409,0.118,-0.145,1.24,0.725,1.352,1.469,0.883,0.643,0.009,23.561
-0.324,-0.032,0.688,-0.812,1.038,-2.775,-0.117,0.68,-1.506,0.149,74.406
0.975,-1.485,-1.131,0.176,-0.648,-0.421,0.762,0.07,1.043,0.549,43.513
0.132,2.054,-0.895,0.439,-3.115,0.939,-0.517,1.403,-1.861,0.432,63.711
-0.063,-0.146,0.881,-0.157,-0.951,0.109,-0.765,-0.725,-0.611,0.231,53.283
-1.033,-0.01,-2.178,0.068,1.08,1.965,-0.471,-1.825,-0.237,0.447,31.297
-1.08,-1.836,1.703,0.139,0.259,0.526,-0.034,0.902,0.868,-0.202,43.414
-1.384,-0.685,2.909,-0.897,1.512,0.317,-0.093,-0.277,-0.736,-1.566,107.811
-0.037,0.349,-2.263,0.929,0.045,0.987,-1.163,0.268,0.018,-0.82,14.563
1.203,-0.737,-0.88,-0.06,0.765,1.324,0.934,0.049,0.761,-0.775,26.336
2.014,1.599,-0.251,-0.166,-1.232,-0.149,0.02,-1.546,1.502,-0.67,74.609
0.266,-0.039,0.798,0.044,1.699,0.005,-1.452,-1.254,-1.111,-1.178,71.288
0.205,-1.351,1.087,-0.811,0.23,-0.748,-1.243,-2.778,-0.57,-0.094,92.629
-0.674,0.814,0.306,0.354,0.662,0.423,1.85,0.452,1.262,0.026,25.436
2.197,0.819,0.068,2.505,-0.319,0.721,-0.989,-1.366,0.419,1.519,124.496
-0.774,-0.48,-2.085,-0.865,0.092,0.286,-0.308,0.335,2.434,0.439,16.85
-0.301,-0.784,-0.793,0.427,-0.097,-0.882,-0.523,-0.577,-1.465,-0.191,36.38
1.374,-0.714,0.131,0.538,0.148,-0.532,1.629,-1.59,0.067,-0.574,63.563
2.71,-0.479,0.246,-0.52,-0.783,0.647,1.266,2.018,0.546,-1.985,80.877
0.007,0.117,1.369,0.772,-1.364,-0.757,-0.558,-0.393,-0.224,-0.452,70.611
-0.53,1.974,2.563,-1.101,-0.384,-0.162,-1.818,-1.311,-0.586,-0.086,123.571
-1.525,-0.002,-0.243,-0.076,1.022,0.635,0.99,0.179,0.205,1.236,24.592
0.228,0.347,2.427,-0.952,-1.148,-0.234,1.076,-2.856,0.915,0.305,111.025
-0.24,-1.254,0.34,0.172,-0.521,1.271,0.431,-0.556,-0.617,0.255,35.856
0.1,-0.572,-0.885,0.634,-0.038,-1.787,-1.059,0.741,0.638,0.5,33.298
0.216,1.781,0.961,-0.247,1.402,0.084,2.047,-1.039,1.061,-0.417,50.574
-0.318,-0.415,0.67,0.838,0.205,-1.426,0.415,-2.098,-0.751,1.094,90.962
-0.063,-0.662,1.101,-1.605,-1.525,0.38,1.182,0.019,0.815,-0.572,64.996
2.058,1.145,0.059,1.383,-1.402,-0.149,-1.366,-1.05,-0.169,0.136,92.112
0.357,0.445,0.662,-0.856,-1.173,-0.305,-1.211,0.425,1.299,-0.065,54.409
-1.172,0.444,1.334,0.303,0.34,2.439,0.122,-0.348,0.875,0.299,36.924
0.413,-0.918,0.188,0.11,-0.257,-0.451,1.259,0.151,-0.647,1.369,54.785
-0.692,-1.39,1.839,1.111,0.66,-2.08,0.39,-0.657,-0.378,-0.044,102.274
-0.146,-1.523,-0.399,1.396,0.19,-0.709,-1.743,-0.783,0.738,0.147,49.26
-0.021,0.205,-1.541,-1.046,0.719,0.545,2.852,-2.629,-0.896,-0.22,63.748
0.158,-0.217,-2.496,0.819,-0.058,0.788,-2.303,-1.485,0.626,-1.497,40.922
1.455,-0.336,-1.17,-1.925,1.057,1.941,1.237,2.685,-1.651,-0.008,65.197
0.302,-0.666,-1.453,1.171,1.097,2.238,1.482,-0.085,0.874,1.527,49.439
0.314,-0.878,-0.684,-0.65,-0.499,-1.275,1.668,-1.118,-0.024,1.972,71.072
0.508,-0.3,-1.29,-0.561,0.127,-0.694,0.267,0.428,-1.68,0.119,29.034
1.656,-1.247,0.41,0.719,-0.61,0.941,1.66,0.254,-0.399,-0.221,59.549
2.097,1.247,1.223,0.319,-0.593,0.896,-0.653,0.135,-0.6,-0.29,90.014
-1.083,-0.475,0.249,1.397,0.794,-0.967,-0.898,1.733,-0.392,0.263,32.3
1.0,0.497,-0.967,-0.054,-0.599,-1.359,-0.381,0.774,-0.164,-1.86,38.271
-0.042,-0.791,1.656,-0.622,0.28,-1.209,0.628,-1.236,0.539,-0.742,74.999
1.116,1.483,-0.196,0.297,0.899,0.899,0.008,0.936,0.937,-0.014,38.053
-1.566,1.73,-0.51,1.094,-1.21,-1.117,-0.186,-0.534,1.444,-0.806,33.21
-0.29,-1.183,1.213,0.396,1.535,-0.03,-1.067,0.422,-0.356,0.783,51.078
-2.932,-1.229,-0.332,-0.919,0.952,-2.288,0.152,0.275,0.832,-0.786,64.01
1.581,0.233,0.846,-0.306,2.122,-0.798,-1.214,-2.386,0.606,0.621,105.145
-0.774,0.192,1.165,-0.817,-0.851,-3.309,-1.298,0.382,0.876,0.414,87.882
-0.835,-1.735,-0.739,-0.327,-0.347,0.982,-1.12,-0.856,-1.232,-1.622,40.393
0.812,-0.861,-1.261,-0.726,-0.686,0.643,-0.105,1.175,-0.446,0.224,27.102
0.382,-1.341,-0.311,1.292,0.078,0.359,-0.589,0.987,1.787,-0.763,34.446
-0.682,-0.47,-1.179,-0.286,0.609,-2.986,0.903,0.054,0.785,-0.874,43.789
0.561,-1.484,1.975,2.682,-1.329,-0.14,-1.864,-2.002,1.337,-1.245,134.673
0.068,-0.215,-1.258,0.881,0.708,-1.231,0.669,0.129,2.667,-0.987,42.823
1.617,-0.735,-1.572,-0.03,0.649,-0.66,-0.573,0.719,0.716,-0.66,28.89
-0.984,0.063,-1.032,0.616,0.023,-0.27,0.312,-1.263,0.674,-2.18,38.485
-2.806,-0.702,-0.747,-1.12,-0.628,-0.272,-1.178,0.489,0.308,-0.795,37.282
0.025,-0.272,0.609,-1.49,0.652,0.341,-0.627,-0.683,2.049,-0.501,39.009
1.111,0.415,0.266,0.728,0.299,-0.305,-0.472,-0.686,-1.192,-0.496,54.792
0.471,-2.002,0.542,1.931,-0.237,-1.438,1.193,1.604,0.785,-0.416,68.623
0.771,1.569,-1.943,1.094,1.007,0.022,-1.498,0.795,0.978,-1.324,37.593
-0.032,-0.812,-1.351,1.798,-0.368,2.31,1.413,-1.001,1.495,-1.631,47.348
-0.72,-0.326,-0.481,0.247,-0.658,-1.048,0.393,0.642,0.579,0.9,26.776
1.534,-0.891,-0.331,1.763,0.272,-0.04,-1.092,-2.069,0.942,0.933,93.089
1.238,0.308,-0.258,-0.328,1.589,-0.836,1.119,0.248,0.915,-1.145,32.137
-1.309,-0.507,-0.805,-0.0,0.779,1.368,-1.57,-1.275,-2.497,-0.348,54.49
-0.661,-0.299,0.237,1.079,0.233,-0.337,-0.991,-1.188,0.367,-0.648,45.65
-0.912,-0.565,-0.467,-0.042,-0.015,0.189,0.611,-0.705,-1.007,-0.896,32.886
0.298,-0.67,-0.06,0.002,1.073,-2.102,1.371,-0.607,2.181,-0.665,58.007
-0.769,-0.5,1.353,-0.564,-1.025,-1.412,1.194,-0.11,0.381,-2.941,89.754
-0.977,-0.205,-0.474,-0.502,-0.011,-0.646,0.315,1.024,0.432,0.704,17.092
-2.426,0.358,0.921,0.628,1.465,-0.291,1.159,-1.16,-0.397,0.26,71.894
-0.985,-0.269,0.82,1.159,0.162,1.371,-0.824,-0.052,1.793,0.396,33.531
0.762,-0.043,0.362,0.806,0.785,1.103,-0.601,-1.118,-0.904,0.021,49.815
-1.408,1.055,2.008,-0.6,0.198,0.09,0.159,-1.107,1.623,-0.353,59.775
0.479,0.532,-0.116,1.065,-0.498,0.125,-0.12,0.443,1.766,-0.906,39.212
-0.315,-0.709,-0.211,-0.703,0.66,1.566,-1.759,1.593,0.869,0.133,20.421
-1.341,-0.728,-1.057,0.378,-0.134,-0.035,1.04,-1.992,-0.173,-1.229,46.717
-1.744,-1.054,0.396,0.112,0.648,0.332,-0.337,-1.118,-0.409,-0.214,45.161
0.246,0.34,-0.125,0.525,-0.922,2.209,0.858,-0.586,-0.487,1.082,42.731
0.888,1.092,0.288,-0.96,-1.368,0.216,1.461,-0.965,-0.401,-1.138,58.133
0.563,-1.161,-0.899,-2.435,-1.327,-0.219,-0.3,-0.173,-0.849,-0.02,58.671
0.275,0.159,-0.226,-0.347,1.331,1.505,1.378,-0.683,-1.198,0.611,44.308
0.98,1.239,1.074,-1.458,-1.485,-0.727,1.995,0.23,-0.257,-0.244,85.242
-0.213,0.753,-1.884,0.459,-0.54,1.059,-1.372,-1.224,0.672,0.254,20.988
-0.111,1.608,1.241,0.817,-2.18,-1.526,2.175,-0.082,-0.182,-0.827,84.71
0.349,0.412,1.055,-1.845,0.142,0.65,-0.096,-0.457,-1.181,0.073,70.965
0.052,1.237,-0.177,1.22,0.728,-0.121,1.563,0.627,-0.114,-0.226,29.843
-1.987,0.664,-0.439,-1.578,-1.264,-0.213,-0.944,1.004,0.567,-0.696,36.257
0.324,1.369,-0.124,-0.05,-1.481,0.463,-0.15,-1.626,-0.3,-0.269,44.071
0.661,-0.24,-0.447,-1.171,-0.373,0.162,-0.116,-1.091,-0.581,0.315,40.967
0.705,-0.137,1.34,-0.049,-0.19,-0.395,-1.437,0.163,2.206,-1.427,70.487
1.362,-2.468,-0.378,0.127,0.327,-1.402,0.787,0.122,-0.443,0.822,60.524
0.16,-0.113,0.339,-0.919,1.665,1.146,-0.423,0.512,-0.422,0.118,33.734
-0.516,-0.139,-0.627,0.272,1.9,1.34,-1.082,-0.178,-0.562,-1.23,30.599
0.276,-0.409,0.728,-1.628,1.492,0.704,-0.176,0.984,-0.325,0.926,46.586
0.548,1.61,0.648,0.699,-0.595,0.627,-0.133,-0.207,-0.014,-0.293,48.841
-0.101,-1.594,0.926,-1.218,-0.458,0.754,-0.34,-1.487,0.857,0.625,53.106
1.988,-1.198,0.692,-1.194,-0.647,-1.812,1.717,-1.063,1.481,0.089,98.948
-0.546,0.881,0.487,0.788,-0.915,-0.79,0.171,-0.078,-0.146,-1.032,43.099
0.804,1.45,-0.119,-1.455,0.501,0.495,-0.89,-0.438,-0.668,1.081,57.968
2.181,1.293,0.795,-1.19,0.048,-0.153,0.542,0.087,0.05,0.472,81.308
-0.035,-0.292,0.732,-0.316,-0.986,-1.129,0.294,1.826,1.264,-0.578,48.631
0.39,-1.019,1.43,-0.815,-0.99,-0.703,-0.996,0.859,1.693,0.71,71.48
-0.845,-0.575,0.552,0.192,-0.96,-0.213,0.042,0.872,-0.147,-0.099,34.512
-0.05,0.448,0.967,-0.698,-0.632,-0.304,0.347,0.649,1.649,1.252,52.163
-0.276,-0.673,-1.059,0.64,1.211,-0.484,1.282,-0.291,0.007,0.865,35.21
-1.673,-0.26,0.112,-0.831,0.991,0.254,0.214,0.461,1.279,-1.655,29.445
0.842,-0.904,-0.677,0.519,2.162,-0.388,-1.39,0.096,1.816,-0.632,42.549
0.05,0.835,0.965,0.323,-1.431,0.018,0.867,-0.313,0.775,0.368,54.73
-0.451,-0.897,-0.009,0.544,-1.998,0.787,-0.265,-0.374,1.468,1.944,51.102
0.479,-0.49,-2.019,-2.144,-0.297,-0.598,0.631,0.33,-0.29,-1.481,39.109
-1.807,0.28,-0.912,-1.544,-0.66,1.034,0.33,1.667,-2.282,0.28,57.625
0.439,-0.088,1.123,-0.054,1.159,-1.355,0.57,-1.122,0.848,-0.981,64.616
-0.582,0.172,1.809,-0.798,0.225,0.768,0.681,2.198,1.004,-1.264,53.568
-0.101,0.034,0.458,0.914,1.129,-0.157,-0.695,1.674,0.064,1.019,35.371
-0.286,-1.866,0.149,-0.757,-2.115,-0.109,-0.705,-0.269,1.253,-0.418,52.535
0.781,-2.647,1.024,-0.453,-0.085,0.239,1.959,1.524,0.189,-1.701,61.374
-1.834,-0.358,0.819,0.804,0.469,-0.548,0.966,0.087,-0.402,0.056,48.215
-0.638,-1.8,0.686,0.194,0.721,-0.179,0.763,0.216,-0.089,0.769,43.107
0.717,0.376,-1.651,0.524,-1.683,0.621,0.311,-0.422,0.508,1.601,46.14
1.222,1.793,0.313,1.284,0.081,-1.199,-0.513,2.376,-0.376,-0.777,62.845
-0.679,-1.21,-0.346,-0.839,-0.4,0.479,-0.325,0.352,-1.922,-0.413,41.018
0.313,-1.03,-1.639,-1.549,0.874,0.997,-1.682,-0.73,1.465,0.795,29.923
-1.166,0.844,1.266,-0.928,0.475,-1.533,1.06,0.457,0.945,1.031,53.628
-1.028,-1.088,-0.112,0.851,1.156,0.58,-0.873,0.536,1.801,-0.68,22.498
1.003,-0.029,-0.205,0.262,0.876,-0.627,-0.788,0.448,-0.37,0.075,36.364
0.475,0.236,-0.932,-0.623,0.758,0.248,-0.056,-0.09,1.493,-0.162,20.503
-0.474,-2.491,-0.066,0.951,-1.755,0.069,0.256,-1.366,-0.713,0.907,63.167
1.24,1.026,-0.508,-0.511,-1.758,-1.312,0.723,-0.57,0.253,0.539,63.147
0.589,0.096,0.029,-0.602,0.922,0.353,-0.73,-0.464,0.943,1.667,46.676
-0.609,0.54,0.08,-0.663,-0.303,-1.414,-0.786,0.108,0.967,-0.701,36.044
-0.504,-0.527,-0.582,0.086,-1.298,-0.13,0.163,1.158,-0.009,-0.127,22.756
0.157,0.552,-0.847,-0.026,0.831,-0.706,-1.166,1.886,-1.279,-0.014,25.127
0.787,-0.089,-0.504,-0.367,-0.98,-0.174,0.425,-2.059,0.466,-0.431,47.099
-0.735,-0.608,-0.526,0.552,-0.589,1.719,0.53,0.832,0.731,1.291,22.044
-1.92,-1.543,-0.157,0.915,0.228,-0.434,0.256,0.268,-0.693,0.995,39.223
-0.536,-0.318,1.105,2.442,1.114,-0.664,0.677,0.667,-0.391,-0.158,64.845
0.181,-0.4,-0.721,-1.936,1.816,-0.658,-1.033,0.593,0.999,-0.225,26.591
-0.371,0.472,0.527,0.308,1.483,0.262,-0.634,-0.307,0.311,-1.449,39.717
0.969,-0.689,0.588,1.57,-0.547,1.273,0.488,-0.244,2.441,0.242,72.019
0.152,0.163,0.803,0.091,-0.65,0.009,0.623,0.109,0.612,0.604,45.405
-1.207,0.715,1.604,-0.27,2.01,-0.966,-0.317,0.854,-1.084,-0.713,74.481
-0.454,0.993,2.308,0.286,0.756,-0.268,0.107,-0.753,0.096,0.497,82.772
0.279,-1.987,-0.414,-0.063,0.58,-0.893,-1.763,-0.025,-0.315,1.366,43.095
-1.92,1.251,-1.732,0.818,-1.627,-1.369,-0.304,1.381,-0.185,-1.006,21.131
-0.007,0.819,0.199,-0.888,-0.672,0.178,-1.138,-1.843,-1.893,0.578,70.422
-0.876,1.28,0.504,0.057,1.679,0.106,1.983,0.089,0.222,0.015,35.978
0.412,-0.094,-0.931,0.899,-1.868,-0.705,-0.277,-0.29,-0.744,1.732,53.996
-0.2,-0.414,0.473,0.875,0.635,0.124,1.438,1.257,1.386,-0.929,29.869
0.907,0.688,-0.076,0.526,-1.82,-1.97,0.816,-1.056,0.73,-1.229,72.651
-0.891,0.746,0.111,0.605,1.313,1.231,-1.413,1.522,-0.744,-0.325,30.264
-0.274,0.304,-0.047,0.183,0.808,-0.369,0.411,-0.498,-0.62,-0.835,33.429
-0.939,1.414,1.017,0.433,1.001,-0.615,-0.114,-0.543,-1.126,-0.606,63.928
-0.366,1.011,0.241,-1.901,-0.645,0.256,-0.806,0.141,-0.938,1.094,59.465
0.007,-0.877,2.059,0.119,0.254,1.384,0.981,0.627,0.833,-0.251,53.897
-1.58,0.353,-0.656,-1.505,-1.408,-1.661,-0.266,-0.48,1.281,-1.877,55.453
-0.283,-0.154,0.464,0.475,0.044,-0.079,-1.514,1.255,-0.927,0.875,40.017
-1.203,0.164,0.123,1.041,-0.769,1.169,1.051,1.585,2.302,-1.24,32.239
-2.107,-0.855,0.009,1.707,-0.519,1.318,0.493,-0.899,0.961,0.31,34.314
-0.534,0.541,1.001,1.232,-1.315,-0.201,-1.083,-0.955,-0.085,-0.478,59.999
0.492,-1.053,-2.023,0.119,0.596,1.017,-0.438,-1.296,-0.182,1.2,33.701
1.048,-0.04,0.986,-0.399,-0.79,-1.032,-1.325,1.13,-1.045,1.119,83.279
-0.068,1.269,0.504,1.34,-1.02,1.185,0.193,-0.14,-0.507,-0.119,41.771
-0.553,-0.492,0.822,-1.291,0.843,0.098,1.039,-1.738,0.136,-1.352,59.225
0.03,-0.263,-0.018,-1.167,-0.974,1.938,0.522,1.118,0.676,-0.048,39.168
1.349,1.951,0.102,1.819,1.311,0.042,0.363,2.987,-0.165,-0.459,58.375
-1.222,0.641,-1.99,-0.824,1.029,-1.944,-0.213,0.212,-1.238,0.194,32.309
0.244,0.627,1.137,1.965,0.773,0.369,-0.099,-0.209,-0.41,1.163,74.407
-1.572,1.37,1.664,-0.613,0.955,0.528,-0.019,0.709,1.152,1.465,49.072
0.07,-0.821,1.352,-0.792,1.048,0.86,0.087,-2.567,-0.107,-0.839,71.716
0.212,0.572,-1.637,-0.365,2.196,1.809,0.547,0.441,0.291,-0.364,21.852
-0.103,-0.332,0.347,-0.29,0.265,-0.009,0.81,-2.142,0.592,-0.198,49.464
0.541,1.005,0.309,1.038,-0.334,-0.07,-0.324,-1.833,-0.879,1.298,74.252
0.16,1.364,1.432,0.6,-2.666,0.918,-1.985,0.158,-1.103,1.357,102.744
-0.815,-0.148,2.539,0.249,1.112,-0.938,2.433,0.592,1.355,-2.203,81.872
0.305,0.115,1.747,-1.591,-0.816,1.373,0.13,-0.227,-0.371,0.524,79.622
0.425,-0.45,-0.205,-0.948,1.163,-1.099,0.031,0.755,1.012,-1.221,26.718
0.171,0.278,0.678,-0.856,0.046,-0.108,-0.664,-1.187,-1.341,-0.987,63.504
-0.041,0.248,-0.169,0.662,-0.892,0.217,0.37,-0.35,-0.069,0.801,33.998
-0.495,-1.248,-1.834,-0.655,1.676,0.163,0.96,-1.701,1.323,0.929,47.474
1.193,0.214,-0.184,-0.696,-1.244,-0.62,0.502,0.736,0.874,0.968,58.306
1.227,0.81,0.644,0.266,0.335,1.066,1.139,1.266,0.166,-2.064,46.656
0.083,-0.92,-1.337,-0.112,0.237,-0.396,-0.829,1.823,0.108,-0.259,10.831
-1.311,0.678,-0.191,-0.267,0.656,-3.039,0.283,-1.633,0.177,0.262,75.05
-1.699,0.493,0.311,-0.61,0.86,-0.528,-0.529,-1.192,-0.361,1.022,51.946
-2.07,-0.141,-0.386,-0.419,-0.086,-0.328,-1.126,0.258,-1.197,-1.092,43.716
-0.713,-0.7,-0.991,1.106,0.707,0.011,0.924,-0.429,1.046,1.199,36.164
-0.296,-0.163,-1.208,-1.021,1.342,0.054,1.326,-0.189,-1.268,0.325,33.978
0.018,0.543,0.594,-1.625,0.132,1.163,-1.157,-1.233,-0.64,0.492,59.437
-0.164,0.834,0.088,-0.018,0.549,-0.683,0.406,0.835,1.849,-1.776,29.833
0.48,-0.672,0.944,0.251,-0.713,0.658,0.506,1.384,0.138,1.357,57.485
-0.389,0.501,-0.4,-1.023,0.095,-0.369,0.56,-0.211,-2.355,1.28,59.047
1.583,0.026,-0.358,0.074,-0.813,0.514,0.133,1.267,-0.494,-0.049,45.555
-1.22,-1.925,-0.061,0.006,0.16,-1.25,-0.617,-1.245,0.786,0.704,53.494
-0.395,-0.771,-1.395,0.381,0.042,-0.525,0.553,-0.247,-1.125,1.584,35.561
1.92,0.682,1.188,0.074,1.715,0.663,0.91,-0.781,1.266,1.644,97.931
1.704,0.274,2.958,-0.016,-0.894,1.122,0.129,-1.039,0.563,-0.209,120.027
0.497,1.052,2.651,-0.666,0.457,0.89,0.288,1.185,0.355,1.171,95.184
-1.523,0.324,0.161,-1.44,2.088,1.548,-0.162,-1.548,0.747,0.802,47.639
-0.152,0.18,-0.839,0.598,0.215,1.413,0.754,-0.09,0.073,-0.017,16.843
0.338,-0.262,0.844,0.436,0.047,-0.208,-0.404,-1.167,0.037,0.508,57.228
-1.271,-0.771,-0.935,-0.388,-0.232,0.887,-0.526,-0.789,-1.917,0.086,35.269
0.852,0.722,0.862,0.085,0.137,0.036,-2.118,-0.359,1.468,2.467,94.377
0.579,-1.888,-0.15,1.026,2.677,0.564,-0.414,-2.182,-0.69,0.77,84.199
1.554,-1.218,1.523,-1.397,-1.415,1.02,-0.416,0.188,1.941,0.843,97.254
1.124,0.952,-0.16,-1.787,0.367,1.051,-0.845,0.467,1.494,-0.373,47.267
-2.349,-1.126,-1.056,-1.294,-1.875,1.054,0.959,-1.614,1.106,-0.308,47.507
0.717,-0.222,0.946,0.537,-0.738,-1.864,-1.59,0.894,-1.429,-0.256,81.664
-0.064,1.022,-0.315,-0.908,-0.934,0.807,-0.523,-0.549,0.904,2.285,47.318
-0.473,-0.561,-0.302,0.351,-1.418,0.945,-1.275,1.436,0.008,0.557,25.024
2.0,-0.751,-0.141,-1.158,-0.626,-1.179,0.597,-0.806,-1.011,-0.874,67.546
-1.272,0.366,0.783,1.042,-1.84,0.549,0.702,0.669,-0.035,1.696,50.911
-1.955,-0.834,0.3,-1.044,-0.594,1.251,-0.714,-0.159,-0.931,-1.545,57.183
1.476,0.679,1.055,0.171,-0.428,-0.999,1.262,-0.983,-1.29,1.151,99.935
0.675,0.973,-1.342,-0.687,0.333,-0.689,-1.254,0.972,0.194,0.474,26.251
-0.245,2.871,-2.021,2.162,-1.987,0.194,-1.37,1.127,0.544,-0.393,41.52
0.89,-0.577,0.44,-0.662,1.296,0.173,-0.755,0.561,0.52,0.168,35.56
-0.355,-0.849,1.165,0.428,-1.824,0.835,-0.53,2.356,-0.163,-0.704,60.744
-0.268,0.528,-0.373,0.445,0.342,-1.448,0.825,-0.822,-1.548,0.884,56.252
-0.104,-1.392,1.132,-0.315,-1.255,-0.522,-1.283,-0.499,-0.383,-0.183,65.502
-1.949,1.515,0.861,-0.343,0.438,0.059,0.334,-1.4,0.148,0.523,49.925
-1.797,0.861,-0.151,-2.1,-0.441,-0.192,0.135,2.096,0.748,-0.434,39.111
1.591,0.409,-0.846,0.605,1.678,0.146,2.277,0.254,0.602,0.68,52.271
-1.875,1.139,0.727,-2.442,-0.913,0.177,1.825,0.058,0.127,0.99,68.278
-0.489,-0.396,-0.113,0.121,-0.367,3.074,2.002,-0.329,0.125,-0.592,36.658
-0.71,-1.012,-0.276,0.687,-0.837,0.695,-0.886,1.078,-1.608,0.158,26.587
0.306,0.29,-1.053,0.499,-0.25,0.528,-0.38,-1.264,0.547,0.602,30.132
-1.78,0.581,-0.377,-0.152,0.401,0.902,0.003,-0.334,-0.352,-1.28,28.414
0.479,-0.475,-0.537,0.557,0.285,-0.676,0.651,-0.171,-1.214,-0.794,34.19
0.058,-0.798,0.14,0.409,0.215,0.163,0.015,0.43,2.141,0.571,34.427
0.224,0.102,0.445,1.145,-0.224,-0.245,-0.405,0.885,1.872,-0.26,43.848
0.094,-1.161,0.056,-1.876,0.222,-0.865,1.109,-0.487,-0.428,1.105,59.556
-0.122,0.579,1.593,1.132,-1.796,1.115,2.109,-0.062,0.686,-0.601,69.573
0.643,0.233,-0.409,-1.097,1.76,-0.08,1.313,1.296,0.794,-0.32,20.928
0.362,-0.213,-0.439,0.389,0.336,0.983,-0.213,0.491,0.015,0.292,20.362
-0.827,1.39,1.191,1.266,0.801,0.429,-0.55,-0.705,0.079,-0.031,56.051
0.199,0.611,-0.076,1.573,0.106,0.067,-0.304,-0.332,0.602,0.011,39.547
1.107,-0.983,0.103,0.633,-0.161,0.356,-0.966,0.359,-0.654,-0.692,38.51
-1.808,0.401,-0.027,-0.314,1.363,-0.82,0.226,1.084,1.176,1.887,26.846
0.959,-1.646,-1.392,0.164,-0.831,0.325,0.512,1.095,-0.359,-0.576,28.257
1.067,1.403,-0.015,-0.975,1.19,0.184,-0.025,-1.548,1.242,0.21,51.862
1.243,0.345,-1.101,-1.642,-0.353,0.047,-0.108,-1.589,-0.447,1.31,56.919
0.726,0.656,0.346,-0.939,-0.633,1.651,-0.097,-0.214,1.684,0.485,48.176
-0.373,0.548,-0.213,-1.766,-0.848,1.45,1.386,-0.252,0.353,-1.675,46.329
0.803,-0.357,-1.458,-1.067,0.041,0.818,0.283,-0.124,0.537,0.434,25.254
-0.414,0.537,-0.405,-0.329,-1.633,-0.185,2.59,0.429,-2.92,1.986,92.716
1.081,0.067,0.122,0.508,-0.241,0.649,0.949,0.442,-0.526,0.25,42.259
-0.597,0.243,-0.156,0.476,0.219,0.669,-1.046,-0.585,2.062,0.781,29.826
1.596,-1.876,-0.66,1.495,0.425,0.388,-0.386,0.989,0.481,-1.078,39.233
-0.486,1.939,0.929,-0.172,0.382,0.176,-0.578,-0.954,1.898,-0.922,47.671
0.924,0.386,-0.078,-0.405,-0.445,-0.324,-0.271,0.161,-1.215,0.391,46.853
-0.465,-1.114,1.22,0.521,-2.228,2.346,-0.296,0.777,1.118,-0.807,57.58
0.051,-1.438,2.346,0.299,-0.322,2.546,1.346,0.561,-0.522,0.112,75.829
-0.51,-0.161,-2.639,-0.331,0.621,-0.43,-1.318,-1.215,0.637,-0.436,27.253
-0.518,-0.201,0.061,0.737,2.025,0.644,1.305,-0.837,-0.464,1.523,58.948
-0.358,1.484,1.575,-2.073,0.368,0.796,-0.063,-0.597,-1.589,-0.558,97.031
1.04,0.393,2.153,-0.514,0.404,-0.816,-0.277,0.667,-0.957,1.959,115.445
0.365,0.108,-1.026,-0.914,0.687,1.997,-0.274,0.969,0.156,-0.507,21.829
-0.455,1.332,-2.04,-1.125,-1.662,-0.707,0.82,-0.632,-0.563,-1.317,34.416
0.398,-1.158,0.226,-0.95,0.343,1.451,-0.215,0.707,-1.225,-0.79,38.755
-0.34,-1.353,0.822,0.42,-0.578,2.546,-0.588,-0.011,0.031,-1.314,37.42
-0.209,-0.463,-0.955,1.147,-0.072,-0.289,1.971,-0.515,-0.085,0.846,43.98
-0.292,0.929,0.158,1.432,1.067,0.481,-0.906,-2.108,-0.836,-1.222,67.163
-0.637,1.969,-0.009,0.715,1.241,-0.162,0.108,-0.757,1.051,-0.49,36.008
1.251,0.637,-0.487,-0.251,-0.177,0.481,0.629,2.455,-0.256,0.624,45.045
0.773,-0.147,0.742,-0.488,1.88,0.112,1.653,0.15,-0.636,0.734,54.788
0.715,-0.544,-1.398,-0.93,0.081,-2.611,-0.936,0.316,1.662,0.59,46.718
-0.05,-2.104,0.874,-0.979,0.642,-1.227,0.015,-0.157,0.289,1.296,62.454
0.82,-0.234,0.775,-1.132,0.459,1.873,0.222,-1.668,1.249,0.122,51.123
-0.643,-0.484,-0.577,-0.215,0.485,0.845,1.392,-1.528,-0.094,-0.229,33.602
-0.17,-1.723,-0.014,-0.73,0.062,-0.131,-2.283,0.833,0.733,-0.871,33.627
1.921,1.366,1.629,1.258,0.35,-1.239,-0.726,1.234,0.607,-1.625,102.23
-2.162,-0.68,0.473,-0.382,0.364,0.305,-0.761,0.583,0.25,-0.027,28.028
0.034,-0.26,-2.024,0.312,0.96,1.031,0.795,-0.105,1.153,0.689,23.263
-0.38,-0.393,-0.329,0.579,-0.934,0.627,0.803,-0.057,-0.193,0.987,30.482
-0.383,0.392,-1.286,-0.816,0.976,-1.322,-0.161,1.325,0.398,-1.824,21.328
0.774,0.292,-0.131,-0.996,-1.342,0.299,1.103,0.486,-0.86,0.133,52.026
0.294,1.184,-0.214,-0.857,0.919,1.737,1.019,0.073,0.224,-0.105,29.687
-0.254,-0.133,0.534,0.431,1.361,0.471,0.295,1.118,0.263,1.251,33.111
1.04,-1.637,1.256,1.275,0.551,-0.386,0.291,-1.371,-0.514,0.644,89.969
-0.315,0.001,2.229,-0.643,-2.061,0.293,1.366,1.33,-0.125,-0.017,96.643
1.03,0.102,-1.424,-0.46,-0.108,0.399,-0.594,-0.577,-0.491,-0.079,26.953
1.512,-1.066,0.704,0.648,-0.548,0.198,-0.048,0.038,1.095,0.547,66.983
1.591,1.104,-0.696,0.72,0.909,-0.318,0.533,0.486,0.274,0.454,44.899
1.699,-0.055,0.06,0.56,0.083,0.226,1.093,1.855,0.149,3.497,113.176
1.337,-0.092,-1.623,1.295,0.245,1.987,0.4,0.138,-1.139,0.189,35.362
-1.226,-0.23,-0.481,-0.81,-0.016,1.477,-1.032,0.087,0.315,0.766,16.045
1.452,0.146,-0.855,-0.737,-0.533,0.454,1.26,0.191,-0.391,-1.003,37.21
-0.189,-2.049,0.298,0.406,0.245,0.628,0.885,-0.749,-1.548,1.556,63.387
-0.058,1.353,0.355,2.421,-0.406,-1.607,1.311,-0.394,0.594,1.297,88.125
0.569,-1.552,-0.521,-0.375,1.55,0.264,-0.92,-0.675,0.928,0.409,32.618
1.163,-0.902,0.509,-1.513,-0.501,-0.948,0.383,0.099,3.312,-0.361,71.929
0.862,-0.811,0.12,1.779,-1.49,1.046,-0.065,1.815,-1.406,-1.541,53.847
-1.928,-0.749,-0.73,0.416,2.466,-0.577,0.114,-1.103,-0.006,0.923,60.363
0.858,1.573,0.484,-1.461,-1.555,0.429,-0.311,0.127,0.436,-0.2,66.846
0.332,0.8,1.499,0.779,-0.541,-0.953,0.232,-0.42,1.152,-1.563,71.582
-0.177,-1.145,-0.71,0.107,-1.242,-0.802,-0.899,-0.268,-1.336,-0.32,38.363
-2.4,-0.358,1.333,0.91,-1.492,-1.734,0.703,1.21,-0.201,0.889,73.738
-0.185,-2.089,-3.411,0.353,0.389,1.087,0.471,-0.127,-0.439,-0.435,31.349
-0.857,-0.186,0.586,1.866,0.027,0.004,1.351,0.386,0.06,1.391,54.116
0.229,0.576,-1.483,-0.638,0.674,-1.606,1.256,-1.419,-0.374,1.881,60.283
0.557,-0.48,1.268,-0.823,-0.081,-1.64,1.599,-1.141,-0.125,-0.829,79.835
-0.084,0.568,-1.234,-0.578,-0.32,1.042,0.195,0.168,-0.432,0.649,18.972
0.691,0.289,-0.684,-0.979,-0.653,-0.035,-1.084,-1.117,0.285,-0.334,37.687
-1.061,1.667,-1.827,-0.983,-1.287,1.511,0.079,-0.421,0.129,-1.292,25.696
-0.973,-0.36,-0.461,-0.661,-0.436,-0.863,0.49,-0.051,0.731,0.751,26.425
-0.628,0.428,-0.671,0.92,0.787,-0.641,0.507,-1.081,0.473,-0.263,34.492
0.68,-1.228,0.35,-0.225,-0.932,-1.827,0.161,0.001,1.585,0.631,68.773
-0.599,0.815,0.435,0.062,0.664,-0.685,-1.019,0.937,1.329,-0.41,30.215
0.315,-2.231,0.847,-0.233,1.192,-0.494,-0.793,0.457,0.695,-0.905,40.984
-0.861,0.081,-0.82,-0.807,2.263,-2.76,-0.105,0.633,-0.384,-0.861,45.857
0.031,-1.625,1.377,1.627,0.189,1.158,-0.116,-2.642,0.318,-1.476,81.881
-0.451,-1.398,0.064,1.259,0.074,0.078,-0.374,0.124,0.406,-0.96,31.104
-0.538,-0.362,1.195,-0.512,0.534,0.339,0.015,-1.532,-2.309,1.278,92.483
-0.454,1.81,-1.385,-0.63,-0.803,0.945,0.749,1.0,0.787,0.588,18.837
-1.26,3.14,-1.902,1.423,-2.3,-0.865,-0.656,1.125,-1.148,-0.127,26.994
0.576,0.778,-0.604,-1.016,0.676,1.234,-1.203,-0.167,-0.561,1.681,47.183
-0.976,-1.34,-0.596,0.154,-1.266,0.837,-1.589,0.939,0.147,0.45,17.119
0.673,-0.397,0.154,-0.583,-0.737,-0.271,-2.361,1.037,1.747,0.92,57.172
-0.516,-1.252,-0.471,0.953,-1.281,1.379,-0.566,1.445,-0.768,-0.45,22.981
-0.503,0.596,0.852,0.306,-0.342,-1.579,1.052,0.66,1.456,0.196,47.728
-0.032,1.399,1.412,-0.379,-0.674,1.55,-1.172,-0.015,0.055,-0.061,62.302
-1.694,-0.785,0.067,-0.7,-1.448,-1.239,0.789,1.698,0.584,-0.485,44.813
0.094,-0.579,-0.193,1.527,-0.054,1.513,1.052,-0.042,-0.783,1.594,48.5
0.171,-0.915,1.156,-0.617,0.062,0.082,-0.587,-1.252,0.34,-1.303,56.958
0.356,-1.55,-0.852,-0.641,-0.908,-1.232,1.507,0.785,0.004,0.833,48.526
-0.681,0.144,-0.729,0.303,-0.808,-1.416,-0.945,-0.255,-2.092,-0.621,47.625
-0.462,0.789,-0.898,0.457,-0.897,-1.789,0.742,0.9,-0.946,0.111,30.693
1.0,-0.445,0.084,-1.349,0.437,-0.092,1.012,0.007,2.411,0.307,45.742
0.581,1.066,-0.699,1.436,-0.815,-0.626,0.907,-0.534,1.145,0.635,52.906
-1.19,0.742,0.589,-0.875,0.943,-0.454,-0.412,-0.856,0.192,-0.859,46.825
-0.443,-0.266,-0.618,0.208,-0.702,0.839,0.667,1.121,-0.768,-0.04,19.994
-0.372,0.071,0.599,0.789,2.072,0.65,0.399,-1.031,0.676,-1.847,50.235
1.158,2.207,-0.452,-2.443,-0.719,-1.033,0.874,1.411,0.525,-1.892,69.31
0.288,1.013,2.173,-1.176,1.557,0.678,-1.11,-0.208,-0.331,-1.963,94.184
-1.141,-0.107,0.409,1.459,0.059,-0.329,1.404,-1.168,-2.193,-1.516,76.193
-1.974,-1.62,-0.021,-0.944,-0.924,-1.076,-2.37,1.696,0.454,-0.259,44.368
0.694,0.892,-0.615,0.522,-1.799,0.915,1.759,0.32,-1.152,1.682,65.113
-0.925,0.454,0.251,-0.576,0.544,0.582,-0.078,2.734,-0.468,-1.877,41.121
-0.953,0.004,-1.396,-1.056,0.122,-0.06,-0.491,-0.022,-0.67,1.695,24.811
-0.178,-0.174,0.409,0.072,1.758,0.879,-0.481,0.667,0.04,0.145,27.012
-1.043,-1.088,2.368,-0.912,0.642,1.545,-0.114,-0.93,1.476,-0.244,60.689
-1.119,-0.012,-0.25,-0.912,-1.255,-1.123,-3.32,-0.06,0.07,-0.046,54.764
-2.251,0.91,1.455,-0.107,-0.588,0.465,-0.526,0.577,-0.325,0.829,50.892
0.145,0.942,0.429,-0.025,-2.473,-1.995,-0.877,-0.688,-2.319,-0.721,98.701
-0.553,0.215,-1.504,2.424,-0.133,-0.688,1.94,1.214,-0.248,0.515,38.993
0.511,-1.116,1.053,0.085,1.047,-0.122,-0.558,-0.043,0.863,-0.522,44.383
0.085,-0.042,-1.74,-0.668,-0.416,-0.718,-0.972,0.596,-0.96,-0.541,21.014
-0.077,-0.865,-1.274,0.319,-1.676,-0.893,-1.136,0.675,-0.648,1.538,35.692
-0.553,-1.534,-0.301,-0.579,-0.521,-1.713,-0.128,0.192,0.716,0.465,40.018
0.436,1.129,-1.037,-0.551,0.001,0.381,0.453,1.755,0.134,-0.52,20.548
-3.103,-3.679,0.522,0.08,-0.081,-0.267,-0.622,-2.213,0.879,0.782,96.6
0.171,1.435,-0.095,0.892,-0.664,1.709,1.455,0.02,0.967,0.994,43.576
-0.446,0.617,1.445,1.074,-0.412,1.062,0.764,-0.446,1.862,0.087,51.563
-2.259,0.148,0.992,-0.293,0.016,0.632,-0.231,-0.662,-0.723,-0.868,56.328
0.646,0.78,0.356,0.642,-1.646,-0.209,2.369,-0.153,0.306,-0.947,58.587
-0.543,1.154,2.1,-0.731,1.318,1.279,-0.708,-0.144,0.333,0.304,68.363
-0.028,1.125,1.17,-1.375,-0.953,0.633,1.301,0.577,-0.15,0.426,64.769
-0.333,0.945,0.417,-0.795,-0.037,0.144,0.017,1.079,-0.038,0.229,32.506
-0.425,-0.269,2.057,0.899,-2.225,1.256,1.557,0.347,-1.917,0.194,99.696
-0.577,1.847,-0.597,-0.327,-0.112,2.004,-0.502,2.291,1.774,0.549,32.577
0.149,-2.05,-1.411,0.353,0.347,0.332,0.098,1.855,-0.604,1.881,27.882
-0.617,-1.915,-0.678,-0.616,1.168,0.436,1.381,0.93,1.773,1.781,35.687
-0.041,-0.257,1.524,-0.942,-1.586,-0.591,0.042,-3.375,0.844,-0.624,98.501
-0.771,0.287,1.837,0.71,2.049,-0.847,-0.038,-1.077,-1.336,-0.129,101.958
0.883,-2.053,-0.127,-0.555,0.628,0.562,0.239,-0.023,0.705,-1.68,32.509
1.63,-0.253,-0.765,-0.314,-1.121,-0.923,-0.859,-0.452,-1.463,1.561,71.034
0.062,1.808,0.177,0.077,-0.072,-0.687,-2.43,-1.228,-0.5,1.131,74.407
-1.514,-0.527,-0.238,-0.035,0.569,-0.274,-0.137,0.197,0.3,0.824,21.12
-0.761,-1.537,0.063,-1.401,-0.412,-0.291,1.064,0.454,-2.797,1.675,87.722
-0.91,1.092,1.342,0.511,1.116,0.537,0.041,1.609,-0.349,0.022,43.191
-0.003,0.931,-1.053,0.361,-0.963,-0.541,-1.016,-1.734,-0.06,-0.415,36.999
-0.321,0.382,0.216,-0.832,-1.102,0.45,0.718,-0.741,-1.36,1.084,55.296
-0.59,0.852,0.625,1.658,1.579,-1.793,0.668,0.689,-0.718,-1.228,60.944
1.35,-0.391,0.224,0.035,0.208,-1.839,-0.148,0.945,0.551,1.441,67.65
-0.605,-0.197,0.141,-0.857,-0.478,-0.07,-0.32,-0.488,0.585,-1.069,33.164
-1.413,0.673,1.255,-0.658,1.433,0.459,-0.734,-1.42,0.093,-1.236,67.144
-0.104,-0.632,-0.667,0.317,-0.237,0.217,1.41,-0.019,-0.982,0.768,33.744
-0.484,1.18,-1.009,0.245,0.533,-0.665,0.72,0.045,-0.753,-1.106,22.192
0.784,1.526,-0.513,1.815,0.855,-0.122,2.085,-0.43,0.401,1.603,75.695
-0.184,0.084,-0.02,-0.763,0.564,-0.489,-0.784,0.326,0.149,-1.195,30.397
-0.04,-0.544,1.387,-0.335,-0.258,0.373,0.787,0.741,-2.253,-0.973,73.788
0.441,-0.287,-0.338,1.101,-0.34,0.82,0.97,2.036,-1.125,-1.081,30.564
0.119,0.601,-0.785,0.662,0.744,-1.737,-0.633,-0.801,0.001,0.238,45.566
-0.071,0.406,0.146,-1.265,-2.014,-0.274,-1.947,-2.013,-0.107,-0.225,68.188
-0.596,-1.745,0.096,-0.848,-1.558,-1.274,-1.09,-0.092,1.361,1.099,54.503
0.135,-0.257,0.292,-0.481,-2.787,-0.25,-1.149,-1.42,-0.652,0.153,69.706
1.277,0.032,-0.507,0.342,-2.512,0.737,0.886,-0.222,-1.333,0.223,63.474
-1.616,1.253,-0.215,-0.525,0.958,-1.248,-0.192,1.07,-0.416,0.426,28.434
-0.546,1.354,0.842,0.715,0.692,-0.635,0.19,-0.667,0.322,-0.323,48.575
0.989,-0.262,-1.052,0.219,0.283,-0.462,0.429,0.038,-0.416,0.101,27.793
0.583,1.407,0.793,-0.921,-0.837,2.01,0.66,-1.659,-0.341,-0.649,60.473
1.166,-0.135,1.16,0.226,1.489,-0.637,-0.322,0.922,-1.106,-0.221,60.754
0.585,-0.397,0.458,-0.145,1.609,-1.017,-0.104,-0.446,-0.037,1.293,59.961
1.462,0.429,0.619,0.544,0.409,0.43,0.505,0.035,0.233,-2.918,55.941
0.288,-0.905,-1.298,0.275,0.074,-0.115,-0.048,-1.4,0.973,-1.209,33.869
-1.46,-0.336,-0.345,-0.482,0.822,1.081,2.264,-0.585,-1.641,-0.298,55.068
-1.695,0.024,0.302,0.254,-0.22,1.045,0.723,0.364,-0.826,-0.47,30.822
-1.252,-0.411,-2.21,-0.006,0.504,1.193,-0.286,-2.215,-0.651,-1.358,42.424
-0.825,0.043,0.967,-0.595,-0.145,-1.022,-0.912,-0.189,1.357,0.088,46.029
1.206,0.425,-1.199,1.528,-0.945,-0.774,1.038,0.126,-0.382,0.656,52.615
1.163,-0.345,0.116,-0.466,0.061,0.208,-0.846,-0.091,2.088,0.935,53.831
0.289,-0.536,-1.586,0.031,1.551,-0.812,0.533,1.759,0.358,1.148,18.725
-0.005,-0.396,2.287,-1.753,0.201,0.132,-0.608,1.404,-1.45,0.402,102.134
-1.958,-0.49,-1.028,0.795,-1.724,-0.656,-0.838,-0.341,0.423,0.164,24.888
-0.25,0.47,0.025,-0.953,-0.649,0.011,1.267,-0.441,0.181,-0.152,34.315
2.38,-1.259,-2.112,0.237,1.074,-0.825,1.307,-1.398,0.312,-0.412,63.911
-0.313,0.609,0.096,0.231,0.221,1.71,-0.256,-0.536,0.251,-0.632,24.765
0.974,-1.34,0.013,-1.017,0.02,0.975,0.199,0.41,-2.149,1.398,63.457
-0.958,1.101,0.498,-0.701,-0.214,-0.267,0.18,-0.349,1.65,-0.004,29.685
0.666,-0.616,-1.069,-2.317,0.074,-1.373,0.171,0.03,1.111,-0.091,39.247
-0.118,0.527,0.064,1.46,-1.896,-0.854,-0.621,0.03,0.272,0.338,51.869
1.883,-0.999,-0.036,-0.415,1.139,-2.81,-0.728,-0.543,0.176,-1.643,75.779
0.685,2.029,-1.971,2.308,-1.268,-0.97,-0.164,-0.125,-0.185,-0.018,49.063
0.706,0.004,1.287,-0.41,0.715,1.444,1.114,0.663,-0.043,0.065,49.465
0.094,0.464,1.118,-0.757,-0.838,-1.496,-2.053,-0.982,-0.944,-1.373,97.107
-1.165,0.075,0.561,1.68,1.967,-1.009,0.091,0.384,-0.947,1.187,67.381
0.584,-1.272,-0.159,-0.66,0.859,1.016,-0.983,1.637,-0.101,-0.446,22.989
-1.652,0.798,0.169,-0.271,0.504,0.695,-0.58,0.457,1.183,0.249,16.027
0.415,-0.237,-0.343,-1.538,0.541,-1.109,-0.533,-0.495,-0.517,0.304,43.901
-0.425,1.09,-1.159,0.107,-0.23,-2.553,-0.811,0.753,-0.982,0.116,35.136
1.088,0.5,1.424,0.875,1.51,-0.511,-0.244,-0.721,0.194,-1.36,74.962
0.652,0.409,1.064,2.485,1.38,0.368,-0.536,1.347,2.076,-0.25,76.642
-0.76,-0.106,-0.416,1.112,1.696,0.961,0.68,0.603,0.45,-0.927,20.194
-2.409,0.306,-0.122,1.176,-2.318,1.715,-0.226,-2.279,1.484,0.112,34.625
-0.498,-0.323,-0.584,1.549,-0.868,0.228,1.022,-0.836,-1.073,-0.642,37.384
-2.593,0.573,-0.189,-1.255,0.966,0.141,1.956,-0.452,-0.642,-0.368,57.605
0.157,2.461,0.988,-0.732,-0.745,-0.846,-0.234,-1.733,-0.312,0.509,79.915
-0.631,0.419,0.687,0.954,-0.416,-0.869,0.824,0.651,-0.782,0.703,48.894
0.265,-0.577,-1.255,1.407,0.33,-0.243,-0.676,0.477,-1.686,0.05,26.363
0.045,-0.123,0.75,1.802,-1.004,-1.722,-1.338,1.022,-0.989,0.412,74.422
-0.503,-0.22,-0.307,-0.229,0.128,-1.714,-0.967,0.463,1.727,-0.038,31.965
-0.021,-0.925,-1.717,0.118,0.114,1.593,-0.368,0.816,0.177,0.701,12.406
0.645,0.281,0.131,0.167,-1.822,0.305,-1.433,1.263,-0.016,0.47,55.048
1.911,-2.111,-0.074,-1.082,-0.771,0.52,2.642,-1.498,0.1,0.368,88.44
-0.823,0.736,0.148,0.431,1.067,-0.733,-1.169,-0.405,-0.483,-0.321,43.906
0.919,0.611,-0.745,-1.141,-0.875,0.791,1.216,0.377,0.39,1.332,49.925
0.289,0.114,0.615,0.298,1.035,0.708,1.114,-1.382,-0.08,1.354,61.778
-0.782,-0.251,-0.172,-0.657,-1.256,-1.008,-0.828,-0.759,-1.487,0.456,53.351
0.036,0.022,0.105,-2.004,-0.639,0.713,-0.824,-0.316,0.035,0.621,46.924
0.213,1.886,0.439,0.134,-1.303,-0.175,0.395,0.018,-0.176,0.068,48.209
1.438,0.454,0.242,1.174,-0.153,1.128,-1.749,0.27,0.367,-0.573,58.467
-0.96,0.866,-2.183,-2.517,0.548,-0.691,-0.208,0.376,1.452,0.649,22.908
-0.491,-0.495,-0.758,0.542,-0.129,0.467,1.797,0.519,0.228,1.422,32.827
-0.465,-0.42,-0.572,1.274,0.593,-0.867,-1.12,0.295,0.971,0.264,31.233
1.754,-0.095,-0.187,-0.132,-0.587,-0.936,1.121,-0.561,0.799,-1.056,55.631
-1.264,0.119,2.557,0.231,-0.366,0.119,0.922,0.551,0.309,-0.372,71.55
1.18,-0.852,0.129,-0.977,2.682,0.089,-2.87,-0.634,0.249,0.166,67.911
-0.245,0.753,-0.251,2.264,-0.533,-1.311,0.452,-0.18,-0.745,1.904,73.024
-0.129,0.031,-0.227,-1.71,-0.985,0.983,-0.137,0.889,-0.309,0.714,42.701
0.551,-1.868,-1.273,0.066,-1.35,-0.693,-0.8,-0.531,0.257,0.759,42.189
-0.036,0.503,-0.537,-2.019,1.434,1.026,-1.797,0.839,0.852,-0.651,37.051
0.326,-0.511,-0.037,-1.74,1.175,-1.135,1.666,0.554,-1.529,-0.875,55.074
1.481,1.331,-0.504,-2.019,0.83,1.561,-0.748,1.516,-0.184,-0.866,62.133
-0.238,1.892,-0.424,-0.944,0.295,-0.392,-0.478,-0.69,-0.453,-0.548,36.654
0.274,1.365,-0.399,-0.889,2.182,0.651,-1.173,1.038,-1.281,-0.804,47.258
-1.034,1.878,-0.208,0.302,-0.42,1.37,-0.417,1.059,-0.599,1.135,28.148
0.382,1.523,1.08,0.699,0.634,1.135,-0.757,0.678,-1.446,-0.184,63.294
0.81,-1.741,-1.978,1.178,-2.03,-0.991,1.054,0.357,0.43,-2.27,65.978
1.184,0.336,1.707,-1.548,0.33,0.411,0.753,1.558,1.079,0.209,72.51
0.067,0.464,0.522,0.451,-1.33,1.359,-0.564,-0.57,0.71,-0.536,39.561
0.395,0.513,-0.101,1.075,0.559,-0.55,-0.437,-1.407,1.316,0.062,55.21
-0.221,-0.404,0.351,-1.564,-2.04,-1.471,0.181,1.944,1.819,1.682,77.916
0.503,0.957,1.38,-0.359,-0.031,0.957,-0.752,0.548,-0.029,-1.448,60.69
0.544,-0.585,1.777,-0.364,0.019,-0.157,-1.166,-0.774,-0.103,2.674,105.772
-0.307,-0.473,-0.859,-0.562,0.823,0.575,-1.291,0.593,-1.047,-1.969,33.353
-1.994,1.18,0.412,1.035,-1.0,-0.607,-0.536,1.201,0.81,-0.544,30.958
-1.599,0.66,0.764,-0.219,1.638,-0.062,1.772,-0.379,-0.087,-1.686,54.221
-1.052,1.303,-0.516,0.894,1.167,-0.343,1.543,-0.319,-0.435,-0.602,31.776
1.295,-1.671,0.97,-0.837,-0.892,-0.647,-0.064,-0.554,0.371,-1.54,71.735
-0.246,1.261,1.823,0.116,-0.132,-0.737,0.992,1.079,0.897,-0.103,59.527
0.773,-0.372,0.959,-0.166,0.359,-0.29,0.266,0.959,0.14,-0.218,43.591
-0.399,0.318,-0.227,-0.376,-1.489,-0.261,-0.977,-0.094,0.317,-2.118,46.03
-0.169,0.431,-1.357,-0.488,1.038,0.598,0.096,0.365,0.906,-0.064,10.219
-1.693,-0.404,-0.329,-0.163,-0.312,0.049,0.031,0.725,-1.042,-0.31,27.071
-1.201,-0.762,-0.66,-0.609,0.606,0.664,-0.381,0.66,-0.565,0.325,16.524
0.413,0.566,-2.41,0.455,-0.095,0.744,-0.832,1.399,1.049,-0.633,19.528
1.551,1.121,-0.837,1.306,1.672,1.301,0.412,1.681,0.359,0.519,49.282
-1.485,1.017,0.976,-1.674,-0.272,-0.144,-1.47,-0.762,0.152,-0.481,63.267
-0.076,1.095,0.811,0.021,-1.183,-2.105,0.692,-0.263,-0.541,0.426,72.393
2.102,-0.216,-0.235,-0.02,-0.411,0.322,-2.105,-0.486,-2.082,0.44,75.312
-1.862,-0.932,0.441,-1.443,0.91,0.653,-1.025,1.425,1.574,0.333,23.499
-0.962,-0.398,1.71,-0.968,1.176,0.109,0.556,-0.239,-0.267,-1.064,62.795
0.436,0.089,-0.01,0.722,0.685,0.784,-0.139,0.267,1.355,0.462,32.188
0.099,-0.244,-0.191,-0.425,0.855,-0.246,0.737,-0.014,-0.155,-0.659,25.412
-0.359,0.292,1.822,-0.624,0.919,0.589,-0.534,0.117,1.516,-0.609,49.714
-0.166,-0.952,-0.991,0.841,0.476,0.606,-1.039,0.027,0.829,0.306,18.389
-0.542,-0.36,0.92,2.076,0.443,-0.155,1.016,1.18,0.093,0.48,50.096
0.214,0.986,1.362,-1.139,0.558,-0.509,0.825,0.284,0.518,0.014,53.343
0.642,-0.207,0.591,0.091,-0.827,-1.794,0.288,-0.085,-0.488,-1.718,65.749
0.418,0.015,0.806,-0.567,0.255,-0.577,-0.783,0.658,-0.081,-1.243,47.211
-0.27,-2.952,-1.149,2.942,-1.229,-0.884,-1.197,-0.923,1.226,0.885,93.515
-0.841,-1.595,-0.491,-0.69,-1.143,1.064,1.295,-0.287,0.038,0.34,36.612
0.758,-0.371,1.428,-0.809,0.078,-0.333,-0.147,-1.047,1.474,-1.269,64.421
-0.416,0.441,-1.34,0.652,-1.137,-0.187,-0.701,0.473,-0.337,0.405,15.701
-2.304,0.527,1.359,-0.572,0.155,1.763,0.779,-0.613,-0.778,0.625,60.389
-0.558,-0.042,0.025,-2.751,2.5,-2.004,-0.165,0.741,-0.077,0.577,58.525
-0.207,-0.009,0.36,-0.22,-1.069,-1.687,-1.241,-1.136,-1.352,1.905,84.999
-0.012,0.695,1.368,0.636,0.48,0.788,1.278,0.05,0.157,0.43,51.01
-0.06,1.158,0.032,0.028,1.126,0.056,0.416,-1.906,-0.535,-1.063,50.157
-0.082,1.615,0.173,0.46,-0.061,-0.961,0.793,-0.762,0.716,0.603,45.152
0.153,-1.587,0.651,-0.224,-0.318,-1.905,0.302,0.714,-3.172,-0.395,91.106
0.161,0.488,0.539,-1.417,0.868,-1.112,-0.956,0.029,-0.735,1.814,69.675
0.669,-1.727,1.571,0.318,0.064,0.662,-0.152,-0.838,0.0,-0.26,61.451
-0.849,1.021,-2.008,2.355,-0.974,-1.432,-0.608,-0.483,0.577,0.206,42.199
0.618,2.137,-1.205,-0.396,-0.439,-1.151,-1.219,-1.972,-1.079,1.303,66.761
-0.35,0.572,1.961,-0.044,0.777,0.392,0.067,0.441,0.533,-0.006,54.279
-1.026,0.357,-0.006,0.739,0.602,-1.122,1.048,0.088,-1.237,-1.614,47.655
-0.767,-0.697,0.941,0.903,1.254,-1.266,-1.187,0.088,-0.497,-1.704,67.735
0.829,1.083,-0.813,-1.809,-0.112,0.048,-0.852,0.313,-0.231,1.043,46.28
-0.22,-1.053,0.151,0.879,1.085,0.118,0.705,-1.294,-0.329,0.633,52.519
0.203,0.346,1.526,-0.801,0.557,0.516,0.058,1.114,0.238,-0.275,49.82
-0.341,-0.209,0.354,-1.063,-0.206,-1.773,-1.37,1.525,-1.063,0.347,55.89
-1.112,0.981,-1.328,0.512,0.333,-0.56,0.297,0.117,-0.172,1.053,16.883
-0.557,-1.14,1.322,-0.056,0.25,0.126,-0.53,0.539,-0.521,0.323,46.977
0.472,0.412,0.922,-0.339,-1.649,0.76,0.706,-0.232,0.278,0.747,61.918
-0.46,0.041,0.79,-0.969,-0.043,-0.076,-0.36,-1.212,1.708,0.221,43.289
-1.177,-0.306,-0.602,0.314,0.948,0.29,-1.13,0.226,-1.303,-0.006,26.172
0.37,0.009,-0.671,0.494,0.62,-0.787,-0.755,0.779,2.541,0.339,37.884
1.372,2.553,1.067,1.236,0.291,-0.233,-2.094,1.351,-1.692,-0.319,109.785
-0.793,0.184,0.428,-0.686,0.264,1.24,0.541,-0.266,1.335,-0.139,23.376
0.144,0.305,-0.369,0.523,0.849,2.922,-0.396,1.146,0.756,0.21,27.999
1.687,-0.35,-1.086,-0.111,1.049,-0.183,0.313,1.743,0.311,1.084,37.84
-0.389,-1.999,0.307,0.477,0.264,-0.217,-0.422,-0.912,0.237,1.114,49.014
-0.482,-2.004,-0.464,0.342,-2.202,0.532,0.472,-1.198,0.377,0.631,49.193
-0.232,0.148,-1.358,-1.055,0.617,-0.369,0.518,-0.009,1.202,-0.003,15.161
-1.607,0.494,-0.43,0.544,-0.857,0.275,0.158,0.682,1.289,1.281,16.124
-2.22,-0.875,-0.988,0.288,0.203,0.388,0.198,-0.813,-0.443,-1.269,38.353
0.716,1.804,-0.272,1.341,-0.863,-0.602,1.411,0.021,0.202,2.445,83.701
0.089,1.371,1.195,-1.055,-0.35,0.213,0.329,-1.256,0.263,0.331,60.688
-0.206,-0.116,-1.248,1.304,0.056,-0.589,0.534,-0.363,1.034,0.387,32.324
-0.822,-0.048,-1.656,1.067,-0.273,0.376,0.646,-0.82,1.788,-0.374,26.629
-0.198,-1.371,-0.207,-1.196,-1.402,3.344,1.114,-0.65,-0.732,-1.381,61.245
0.004,-0.441,-0.576,-0.216,-0.296,1.318,-0.687,-0.312,-0.383,-0.071,20.542
-1.378,1.611,0.875,-0.327,-0.094,1.771,-0.847,0.413,1.118,-0.368,33.706
-0.169,-1.159,0.31,-1.824,0.397,1.113,0.624,-0.47,0.274,-0.4,39.189
-1.428,0.549,-0.719,0.025,0.658,-0.733,1.201,1.007,-1.075,0.781,26.55
1.233,-0.683,-0.608,0.538,-0.554,0.641,0.572,-1.32,0.995,0.042,47.788
-1.541,-0.788,0.835,1.015,-0.098,-0.479,1.255,0.017,0.54,-0.2,46.478
-0.864,1.686,-1.49,-0.676,-0.744,0.208,2.062,1.405,-1.867,-0.151,37.691
0.236,-0.209,0.35,1.041,2.029,0.058,0.226,0.604,-0.507,0.252,39.674
1.924,0.351,2.144,-0.844,1.422,-2.085,1.427,0.412,1.46,-0.66,94.166
-0.764,1.234,-0.575,-1.969,-0.434,0.64,1.899,-0.142,0.064,0.722,40.266
0.533,1.321,1.873,0.106,-0.608,-0.301,-0.178,-0.633,0.909,-0.99,77.055
-0.541,-0.487,-0.451,-0.495,-1.363,0.059,0.312,-0.204,-1.237,0.194,36.671
-1.694,0.316,0.736,0.946,0.898,0.973,1.168,-0.191,-1.491,1.233,58.484
0.972,0.583,-0.422,-2.157,0.382,-0.29,-2.246,0.808,0.475,-0.264,55.296
1.548,0.14,-0.581,-0.4,0.288,-1.718,-0.726,-0.021,-0.954,-0.628,49.745
-2.035,0.274,0.229,-2.0,-1.094,-2.359,0.522,0.652,0.752,-0.467,63.308
-0.439,0.168,0.718,0.797,-0.361,-0.939,-1.639,-2.308,0.422,-1.144,79.426
-1.966,0.78,0.428,-0.102,1.413,-1.185,-1.719,0.463,1.112,-0.219,42.716
-0.959,0.472,-0.608,0.322,0.689,0.011,1.033,-1.918,0.446,-0.322,37.51
-0.477,-1.213,0.131,0.317,0.994,0.207,-1.083,-0.555,0.56,-0.522,31.265
-0.909,-1.914,-0.755,0.305,1.156,0.335,-0.073,0.237,1.085,-0.877,20.708
-0.625,0.583,1.164,-0.956,0.241,-0.195,1.717,0.427,-0.761,-0.733,55.932
-1.233,0.028,-0.704,0.271,0.455,0.926,-0.385,0.873,-0.431,-1.613,19.974
0.599,0.428,-1.7,0.659,0.232,-0.613,-2.892,0.094,-0.568,-0.169,38.649
0.414,0.862,0.425,-0.424,-0.346,1.291,0.918,0.223,0.993,-0.62,34.95
-0.872,0.846,-0.697,-0.096,0.687,-0.06,2.411,-0.199,2.682,-0.309,29.279
0.69,1.497,-1.017,-1.216,0.071,1.386,-0.104,1.01,-2.195,1.463,63.062
-0.705,0.774,-1.218,0.616,-0.055,0.065,-0.385,0.322,-0.84,-0.04,13.291
-0.105,-1.4,-1.068,-1.552,0.659,2.449,-0.196,1.271,1.713,-0.793,28.821
-0.873,1.226,0.061,0.563,-1.3,-1.232,-0.701,0.702,0.644,-0.134,35.372
-0.091,0.448,-0.525,-0.682,0.201,0.421,-0.976,-0.713,0.056,-0.319,25.476
1.124,0.401,-0.056,-0.021,-1.098,-1.266,-1.242,0.788,-1.713,1.919,81.747
0.11,-1.436,-0.53,-0.289,0.98,1.492,0.955,0.678,-0.184,1.363,30.674
1.427,-1.888,-0.146,0.164,-0.354,-0.851,0.229,0.324,-0.233,-0.192,48.101
-0.477,0.975,0.039,-1.215,-2.318,-1.372,-0.605,0.788,0.055,1.087,61.254
0.549,-0.429,0.186,-0.693,-1.547,-1.372,0.709,1.424,0.27,1.768,72.303
1.177,-0.021,1.232,0.075,-1.566,0.453,-1.738,0.169,-0.867,-0.159,83.156
0.558,0.98,1.294,0.31,-0.86,-1.814,0.848,2.133,0.352,-1.115,72.313
1.066,2.463,0.09,0.691,-1.357,0.266,-0.5,0.214,-0.48,0.507,66.248
0.946,0.53,-0.869,-1.391,-1.76,-2.047,0.659,-0.617,-0.182,-0.438,61.231
-0.006,1.589,-1.576,1.506,-1.18,-0.295,-0.218,0.716,0.699,1.468,36.453
1.35,-0.03,-0.218,-0.915,0.416,0.255,0.734,0.501,-0.156,1.014,45.159
-1.528,-0.609,-0.292,0.299,-0.526,0.064,-0.072,-0.699,-0.113,-0.334,27.203
0.312,-0.198,1.067,0.479,-0.278,-0.159,-0.711,-0.706,0.069,0.821,60.639
0.736,-0.304,-0.827,1.187,0.617,1.911,0.828,0.892,1.095,1.571,47.859
0.724,-0.865,0.854,0.826,0.172,1.696,0.414,-0.62,-0.967,1.111,60.032
-0.473,1.13,0.887,-0.08,0.458,0.089,0.073,-0.658,0.884,-0.075,38.866
-0.633,-0.83,0.302,-0.354,-0.973,-0.794,-0.967,2.509,-0.265,0.263,40.233
0.707,-0.58,-0.123,1.268,-1.303,-0.476,2.431,1.235,0.972,0.522,68.996
-0.182,-2.007,-0.953,-2.068,-0.631,0.269,-0.991,1.742,-0.181,0.592,38.025
-0.537,0.436,-1.14,1.994,0.851,-1.193,-0.264,-0.819,0.303,-0.31,48.193
-0.502,-0.454,-1.576,1.589,-0.371,-1.386,0.802,-1.225,0.032,-0.767,48.789
0.165,-0.029,1.013,-1.095,1.725,-1.021,1.983,-1.167,0.446,-1.363,62.685
-0.127,0.259,1.336,0.342,-0.972,0.052,-0.823,2.589,1.242,0.543,60.979
-1.067,-0.008,-0.647,1.962,0.147,1.89,0.977,0.812,0.765,0.949,26.772
0.409,0.304,-0.944,-1.397,0.729,-0.753,0.362,-0.562,-0.991,0.67,39.657
1.087,-0.234,-0.259,0.093,-0.671,-0.607,-1.524,-0.389,0.728,-0.4,48.458
1.128,-0.422,-0.932,0.687,-0.13,0.27,-0.243,1.882,-1.851,-0.091,31.212
0.39,-1.536,-0.665,-1.036,0.089,0.469,0.995,-1.879,2.417,0.207,51.345
-1.737,1.486,-0.006,0.353,-0.985,-0.788,-2.959,0.547,-0.099,0.44,45.659
0.959,-1.835,-0.66,-1.197,-0.26,-0.368,0.025,-0.848,-0.419,-1.199,43.986
-1.926,0.088,-1.998,0.428,-0.333,-2.34,0.015,-0.386,1.189,-0.328,36.275
-0.507,-0.913,-0.924,-1.393,0.169,1.257,-0.913,1.028,-0.249,0.322,20.171
-0.725,0.081,-0.95,-0.061,-2.377,0.516,0.59,-0.162,1.427,-0.537,31.357
-1.305,0.666,0.453,1.862,0.388,2.006,0.344,0.584,0.301,-0.002,28.343
1.543,-0.103,2.561,1.219,-0.038,0.639,0.332,-1.475,2.452,-1.596,114.907
0.072,0.456,-1.446,1.457,-0.752,-0.249,-0.126,0.869,-1.309,-1.927,27.907
0.627,1.319,0.335,-0.689,0.188,-0.164,-0.413,-0.673,-0.465,0.898,55.327
-1.404,-0.514,0.091,-0.323,0.014,-0.212,0.112,-1.321,-0.105,0.66,40.735
0.537,1.93,0.174,-0.065,0.214,-1.135,0.191,2.089,0.834,0.724,45.13
-0.41,0.713,-0.996,0.654,-1.749,0.687,1.907,0.883,0.77,2.329,54.263
-0.779,-1.416,-1.054,0.528,2.915,-0.358,0.398,-1.381,0.563,-0.175,60.184
-0.046,0.094,-0.238,0.384,-0.097,-0.478,-0.189,0.124,-0.302,0.124,26.91
0.587,0.906,1.627,0.637,-0.093,0.729,1.682,-1.975,-0.215,-0.506,76.641
-2.361,0.129,0.595,0.663,-0.437,1.049,0.88,1.037,0.913,-0.345,24.684
0.542,-0.126,-0.578,-2.276,-1.348,-0.248,-0.252,1.208,-0.766,-0.946,62.415
-0.196,0.632,-1.914,-0.745,0.024,0.091,-1.483,1.448,-0.601,2.365,29.792
0.158,-0.98,-0.459,-0.021,-0.231,0.467,0.616,-0.236,0.049,0.731,28.801
1.124,0.78,1.255,0.707,-0.051,-1.553,0.124,-2.478,-2.141,1.441,141.154
-1.004,-1.745,-1.18,-0.501,-0.306,-2.146,-1.191,-0.08,-1.317,-0.693,52.246
-0.306,0.12,-1.445,-0.14,-0.405,-1.396,-0.038,0.73,3.097,-0.693,35.146
-0.992,0.353,-0.383,-0.534,-0.433,1.997,-0.89,0.249,0.39,-1.47,26.732
-0.581,-0.501,-0.379,0.831,-0.776,0.864,1.5,-0.281,-0.736,0.187,31.965
-0.628,0.478,1.153,-0.851,1.164,-0.243,0.986,-0.141,0.156,-0.145,45.405
-0.442,0.754,-0.347,0.442,0.292,-0.637,1.226,-1.014,1.602,0.118,35.477
0.252,0.133,1.399,0.31,-0.278,0.972,-0.735,0.646,-0.424,-0.915,53.285
0.54,-1.02,-1.457,-0.072,-0.272,1.202,0.244,0.996,-1.059,-0.158,19.755
-1.05,0.016,0.438,0.786,0.532,1.35,-0.58,-1.61,0.909,0.709,39.009
1.955,-0.281,0.502,-1.48,0.341,0.201,-0.3,-0.129,2.229,-0.878,62.323
-0.715,1.062,0.18,-1.092,2.581,-0.057,0.895,-0.321,-0.949,1.757,67.078
-0.571,1.108,0.389,-0.253,-0.209,-2.225,0.438,-0.05,1.426,1.276,53.954
0.591,0.839,-2.151,-1.948,2.158,0.618,-0.931,0.871,-0.585,0.308,36.045
0.836,-0.075,-0.265,0.241,0.486,0.892,-1.225,1.615,-0.782,-1.435,32.938
-0.403,1.381,0.861,0.558,1.177,1.207,0.235,0.203,1.051,-0.568,33.858
0.537,0.263,-0.367,-0.047,1.459,0.953,-0.609,-0.637,-0.661,1.331,44.756
0.667,-0.277,-1.099,0.363,0.781,-0.524,0.124,-1.234,-0.351,0.951,44.175
1.194,-0.619,-1.116,-0.716,-0.476,-1.568,-1.133,0.502,1.201,-1.351,44.747
-0.165,0.283,1.414,1.681,0.57,-0.22,-0.436,-1.773,0.153,0.924,90.384
-0.386,-0.04,-0.867,-1.163,0.181,1.408,-0.089,0.316,-0.824,0.14,24.116
0.368,0.328,0.592,0.136,-0.291,0.172,0.591,-0.288,0.134,-0.394,38.828
-0.802,-0.851,0.691,2.02,-1.344,-1.452,0.826,0.461,0.462,-1.825,73.298
-0.475,0.117,-0.006,0.8,0.307,-0.617,-0.779,-0.785,-0.178,-0.25,38.796
-0.196,1.844,1.208,0.085,-0.153,-0.876,1.363,0.33,-0.249,-0.759,54.644
0.715,-1.142,-0.358,-0.937,-0.617,0.0,0.71,0.012,-1.63,0.522,50.081
-0.157,-0.084,-0.361,1.073,0.213,0.704,-0.161,0.934,-1.34,0.531,25.24
-1.3,-0.253,-1.484,-0.465,-0.694,3.269,0.084,1.47,-0.8,1.288,32.946
-0.65,-0.389,1.48,-0.862,-0.129,-0.184,0.7,1.216,0.501,0.432,49.259
0.014,-0.558,1.883,0.918,-0.668,-0.422,-1.124,0.752,1.092,-1.704,75.52
-0.384,-1.157,0.629,0.384,-0.188,0.213,-0.105,0.902,0.331,0.15,29.75
0.687,-0.045,-1.799,-0.452,-0.759,1.658,-1.094,2.146,-0.867,0.466,34.211
-0.457,-1.051,-2.235,1.259,1.205,-0.153,-0.075,-1.739,-0.589,-0.287,48.699
-0.251,-0.89,-1.011,-0.462,-0.708,0.592,2.081,-0.504,1.377,0.484,37.993
0.205,-0.431,2.475,-1.169,-0.504,0.886,-1.593,1.091,-0.071,0.968,96.118
-0.486,-0.53,-1.742,0.45,1.241,2.731,-1.359,-0.313,-0.484,0.564,22.968
1.221,0.171,-1.644,-1.125,-1.118,0.368,-0.008,-2.325,-0.281,0.882,53.313
-0.284,-0.593,0.553,0.394,-0.951,0.541,-1.332,-0.001,0.721,2.133,51.053
-0.889,-1.136,0.949,0.074,0.129,-0.479,1.347,0.985,-0.224,0.644,46.657
1.485,-0.171,0.082,-0.652,0.714,1.169,-2.453,1.354,-0.405,0.61,58.511
0.074,-1.215,-1.364,0.611,-1.617,-0.162,0.297,-1.195,0.9,-0.625,40.455
-0.301,0.679,0.324,0.472,0.318,-0.869,-0.218,-0.769,0.552,-0.274,41.177
-2.253,1.318,-1.388,-0.59,-0.461,1.19,-0.404,2.141,-0.337,0.47,16.573
-1.279,-1.65,0.13,-0.563,-0.303,0.828,0.62,1.932,-2.016,-1.56,60.177
-0.409,-0.665,-0.508,-0.054,-0.531,0.865,-0.866,0.067,0.835,0.362,16.669
0.777,0.38,0.815,1.575,1.169,-1.93,-0.868,0.082,0.744,0.348,84.458
0.427,-0.194,-0.112,2.105,0.679,-0.034,0.157,0.903,-0.364,-1.113,36.549
-0.089,1.07,0.5,0.286,2.274,-0.354,-0.228,0.655,-0.544,0.957,50.334
2.353,-0.849,-0.352,0.309,0.209,0.351,0.14,-0.597,0.472,-0.86,52.237
0.277,-0.334,2.129,-0.632,-0.648,-0.785,0.051,1.89,-0.429,-1.047,85.485
0.465,1.152,1.116,1.863,1.478,-0.885,-1.049,-0.776,-0.011,1.115,102.379
-1.555,-0.568,-0.708,-1.091,0.327,-0.016,1.243,1.326,-0.4,-0.156,26.454
-0.799,-0.862,-0.774,0.148,-0.7,0.671,-0.877,1.057,-0.242,-0.96,16.532
0.502,-0.561,1.217,0.032,0.183,0.942,-0.431,0.358,0.809,-1.305,43.798
-0.162,2.102,1.032,1.034,0.834,-0.616,0.251,-0.812,2.152,-1.157,63.096
0.696,-1.322,-0.388,-0.744,1.982,0.713,-0.028,-0.36,-0.693,0.954,39.694
-1.516,-1.075,-0.824,1.289,0.562,-0.987,-0.889,0.093,1.975,-0.395,36.795
-0.935,0.843,-1.726,-0.025,-0.436,0.836,-0.516,-0.126,0.894,1.504,12.511
0.34,1.171,-2.035,1.06,0.034,0.429,-0.462,-0.186,0.856,2.352,48.482
-0.045,-0.248,-0.097,2.276,-0.525,0.034,-0.575,-0.58,-1.903,-0.703,52.672
-0.05,0.008,1.277,1.061,-1.377,-1.795,2.161,-0.29,-0.68,0.995,101.42
0.45,-0.803,1.661,1.29,-0.079,2.185,0.341,0.81,1.274,0.071,58.417
-1.075,-0.085,-0.317,1.509,0.622,0.601,-0.666,-0.352,0.016,0.998,30.12
-1.538,0.213,-0.657,1.133,-0.611,0.968,-1.457,0.178,-0.233,1.137,15.808
0.828,-0.196,-0.138,-0.24,-1.637,-1.125,0.003,2.091,0.113,1.109,61.962
1.37,0.606,0.794,0.102,-0.588,0.157,-0.381,-0.387,0.892,-1.395,60.597
1.143,0.866,2.584,0.604,-0.753,-0.5,-0.36,0.556,-1.169,1.715,138.752
0.632,-0.15,0.263,0.393,0.043,0.203,0.932,1.579,0.321,2.111,57.328
0.337,1.601,-2.655,-0.115,-2.1,1.461,-0.289,0.783,1.644,0.474,44.448
0.291,-0.297,0.202,0.598,1.198,-0.688,1.063,-0.904,-0.929,0.706,59.134
-1.492,-0.585,-0.87,-0.129,0.209,-1.385,1.759,1.054,-0.797,-0.717,35.945
1.156,1.603,-0.514,0.24,0.685,1.799,1.243,0.95,0.116,-0.182,38.018
0.967,-0.802,0.341,0.712,-1.098,-2.564,-1.059,2.065,-0.381,-0.076,74.093
-1.043,0.962,0.454,0.653,-0.333,0.767,-1.716,-0.625,-0.305,-0.131,39.043
-0.189,0.88,-0.303,-2.259,0.618,-0.906,0.689,0.612,0.571,-0.206,33.309
-1.12,-1.363,-2.243,0.599,0.665,0.928,-1.111,0.301,2.377,-0.392,23.534
0.006,-0.989,-0.332,1.806,0.148,-0.208,1.177,-1.123,-0.43,1.014,62.828
0.122,-0.808,0.851,0.292,1.119,1.481,-0.374,1.112,-0.414,-0.223,31.941
0.632,-0.188,-0.658,-0.441,0.721,-0.181,0.719,-1.478,0.85,0.69,41.779
1.017,0.534,-1.605,0.304,0.709,-0.872,0.6,-0.291,0.787,-0.351,29.628
-0.894,1.416,-1.38,2.009,2.423,0.495,-0.329,-0.385,1.96,0.398,55.817
-0.832,-1.182,1.078,1.18,-1.081,-0.86,0.521,0.793,1.108,0.01,56.348
0.859,0.446,-0.673,-0.152,0.234,2.14,0.65,1.59,0.066,-0.241,31.647
1.505,-0.767,0.002,1.848,0.789,0.253,-0.689,-0.48,1.243,0.326,70.832
1.503,0.881,0.426,0.214,0.77,0.781,-0.178,-2.001,1.864,-0.132,70.202
0.922,3.75,-1.457,0.681,-0.011,-0.834,-0.531,1.503,0.521,-0.965,46.65
0.332,-1.619,-1.048,1.992,0.543,-0.401,1.724,1.46,-1.127,-1.283,37.952
1.318,0.094,0.036,-0.473,-0.108,0.664,0.051,-2.094,0.289,0.148,54.595
-0.473,-0.27,0.828,1.43,1.056,0.161,0.524,0.255,0.587,0.758,45.172
-1.441,-0.094,0.93,0.161,-2.099,-0.807,1.051,1.06,-0.306,-0.279,60.616
0.76,1.375,0.179,0.524,-1.724,1.37,-1.322,-0.548,-0.822,-1.415,60.152
0.669,0.367,-0.063,-0.2,-0.172,0.163,0.94,-0.762,1.156,-1.98,38.398
-0.965,-1.016,0.627,-1.24,0.341,0.664,-0.465,-1.044,0.894,-0.567,38.371
-0.324,-1.205,-0.476,-0.136,-0.413,-0.101,1.465,0.319,-0.278,-1.692,35.313
0.608,-0.291,0.011,-0.156,-0.248,-0.677,-0.401,2.86,-1.454,1.024,50.37
-0.768,0.319,0.372,2.07,-0.297,-0.806,-0.268,0.739,-0.598,-0.461,44.409
0.841,0.193,-0.959,-0.715,-0.793,0.326,-0.503,-0.159,0.323,-0.496,29.077
1.105,-1.477,1.324,-0.497,-0.411,0.251,0.512,-0.957,-1.239,-0.256,74.835
-0.251,1.567,0.562,1.335,-0.49,-0.122,-0.243,-0.371,-0.489,0.141,48.78
-0.7,-0.457,-0.161,0.924,1.043,0.777,1.043,-1.103,-0.027,0.196,37.29
-2.011,-1.774,-0.583,2.286,0.904,-0.815,-0.547,0.337,-0.969,0.846,54.469
0.664,0.765,-1.063,-0.88,-0.258,-1.008,2.304,-0.02,-0.506,0.37,41.086
0.118,-1.109,0.731,0.568,-0.678,-0.134,1.484,-1.53,-2.329,-0.992,81.417
1.226,-0.733,-0.919,-1.83,0.94,-1.006,-0.333,1.346,0.182,-0.785,30.705
0.093,-0.703,-1.169,0.172,0.027,-0.619,-0.523,0.914,-1.392,0.091,20.481
-0.124,-0.884,-0.726,-0.2,-0.569,0.692,-0.639,0.599,1.567,-0.346,19.248
-0.244,-0.76,1.001,-0.565,-0.642,1.525,-0.481,0.366,0.098,-0.307,40.072
-1.018,-0.648,0.171,-0.846,-0.468,0.714,1.275,0.297,-0.325,-0.343,35.079
0.985,0.932,0.129,-2.244,-0.631,0.159,-0.628,0.902,1.252,-0.483,60.531
0.449,-0.008,-0.739,-1.228,0.345,1.59,1.718,-0.293,0.009,0.305,34.57
-1.329,0.231,-0.248,1.975,0.477,2.001,3.475,-0.238,1.024,-1.781,56.218
0.044,-1.283,0.823,0.242,0.483,1.335,0.901,-0.045,0.151,0.841,41.594
1.035,-1.99,-0.731,1.283,0.246,0.916,0.317,1.083,0.284,0.906,39.122
1.102,-1.297,-0.906,-2.209,-0.851,0.217,1.473,-2.968,-0.758,-0.246,79.805
2.129,-1.124,0.426,0.212,-1.325,-0.816,0.375,-0.358,1.445,0.813,97.76
0.305,0.541,0.138,-0.627,-2.209,-1.566,-1.095,-0.665,-0.081,0.319,69.281
-0.148,0.726,1.613,0.83,-1.166,0.518,0.342,1.184,-1.939,-0.473,76.459
-0.349,-2.316,0.287,-0.324,0.483,0.499,0.438,-0.373,0.929,-0.338,33.032
0.96,2.31,-0.609,-0.242,-0.924,0.971,0.701,0.988,-0.59,0.841,52.442
0.116,-0.814,0.094,-2.306,1.742,0.473,2.012,-0.295,-0.775,0.048,58.767
0.257,0.348,-1.277,-1.892,-0.82,0.052,-2.012,0.971,1.247,-0.022,39.085
-1.646,-1.277,0.681,-2.148,-0.968,1.067,-1.166,-0.908,-1.894,0.729,86.974
-1.404,1.151,-1.075,0.827,1.351,0.89,2.191,-2.258,-0.03,-0.448,53.233
-0.702,-1.598,-0.136,-1.037,-0.109,-2.35,0.005,-0.996,1.03,1.201,65.769
0.107,-0.204,-0.956,1.248,0.168,-0.119,-0.085,0.242,-1.479,0.367,27.691
0.117,-0.881,0.229,-0.725,-0.081,0.28,-0.312,0.353,-0.087,0.01,30.122
-0.408,-1.323,2.357,1.095,-1.48,0.435,-0.373,0.288,0.377,-1.029,80.812
0.754,0.296,-0.996,2.842,0.359,-0.732,0.787,1.049,-0.663,0.131,51.746
-0.741,1.082,0.987,0.803,0.61,-0.458,0.106,-0.329,1.421,-2.034,51.572
0.834,0.546,-0.809,0.065,1.704,2.796,0.051,-1.309,0.075,0.347,45.34
-1.168,1.447,-0.698,1.428,-1.321,-2.094,0.408,-1.273,-0.747,0.924,59.523
1.255,-0.169,0.75,-1.082,-0.448,-1.862,-1.358,-0.735,1.686,-2.458,92.177
-1.365,-0.252,-0.764,-0.078,-0.819,0.879,1.203,1.137,0.322,-0.73,19.085
-0.036,-0.841,-1.299,0.091,-1.004,0.939,-1.94,-0.216,-1.235,0.794,24.518
0.682,0.307,0.646,-0.187,-0.507,1.167,-1.964,-0.51,0.311,0.378,54.594
-0.991,1.976,-0.364,0.423,-0.532,0.156,1.314,1.455,0.711,0.733,20.38
0.166,0.04,0.364,1.311,0.433,0.177,1.158,-1.042,1.298,2.183,79.024
0.158,-1.094,0.086,1.312,-0.365,0.669,-0.68,0.639,-0.744,2.024,49.005
0.312,0.292,0.794,0.979,1.568,-0.021,0.012,0.14,-1.577,0.09,57.897
-0.432,-0.625,0.549,0.252,-1.632,0.926,-0.051,-0.853,-1.436,-0.817,51.513
0.162,0.237,0.172,-0.085,2.469,-0.821,0.44,-1.116,-0.139,-0.488,54.528
-1.127,1.429,0.382,-0.142,0.766,-0.42,-0.4,0.517,-0.666,-0.061,36.567
-0.568,-1.938,0.316,0.827,-2.634,-0.139,0.439,2.143,-0.182,-2.205,77.293
-0.237,0.769,-0.454,-1.519,0.686,0.864,0.648,1.357,-0.369,0.119,28.471
1.151,1.258,0.314,-0.623,0.138,-1.59,0.76,-1.058,-0.868,-0.871,64.702
